{"lossFnKind":0,"layers":[{"kind":0,"inputsCount":784,"neuronsCount":20,"weights":[0.24422045052051545,0.43606674671173098,-0.0187595933675766,0.3201853036880493,-0.33659982681274416,-0.05591210350394249,-0.09569719433784485,-0.37602710723876955,-0.11824765801429749,-0.15639683604240418,0.2555168867111206,0.32439398765563967,-0.4575756788253784,0.08658535033464432,-0.08655264973640442,-0.3738216161727905,-0.05304333195090294,-0.2810666561126709,-0.16207405924797059,0.21411390602588654,0.4093824625015259,0.4905104637145996,-0.2851850986480713,0.3546452522277832,-0.09062519669532776,0.1828974038362503,0.13871295750141145,-0.2401169240474701,-0.4903526306152344,-0.23564550280570985,0.09009358286857605,0.3074972629547119,0.23244912922382356,-0.43298348784446719,0.04735824093222618,0.2891842722892761,-0.19351127743721009,0.10804253071546555,0.13970477879047395,-0.4152246415615082,-0.17952391505241395,-0.42562660574913027,-0.03858461230993271,-0.06749845296144486,0.09982158243656159,-0.32716241478919985,0.027792468667030336,-0.270102858543396,0.07514998316764832,0.008323444053530693,-0.2732381820678711,-0.09400489926338196,0.3476623296737671,-0.11205461621284485,-0.4946635961532593,0.008938921615481377,0.3548893928527832,-0.2865985631942749,0.15465863049030305,-0.3807626962661743,-0.016391081735491754,0.23163987696170808,0.4605124294757843,0.15803486108779908,-0.15823142230510713,0.40515410900115969,-0.04682423919439316,0.06509425491094589,0.3040417730808258,0.025312162935733796,0.13802993297576905,-0.11948985606431961,0.28862929344177248,-0.23878534138202668,0.29500946402549746,-0.008636449463665486,-0.46988266706466677,0.06863347440958023,0.24581852555274964,0.40699267387390139,-0.30479827523231509,-0.47061705589294436,-0.10839048027992249,0.4467771053314209,0.18287880718708039,0.055587563663721088,-0.3712902069091797,-0.17424187064170838,-0.4028126895427704,0.2993701100349426,0.23395994305610658,-0.06718617677688599,0.23298563063144685,-0.1943439543247223,-0.09008326381444931,-0.5182366967201233,0.3971884846687317,-0.48651692271232607,-0.31234174966812136,0.46720385551452639,-0.39338675141334536,0.2330331951379776,-0.02390412427484989,0.2921251058578491,-0.28587424755096438,-0.37579241394996645,0.08323770761489868,0.2713460922241211,-0.10678456723690033,0.07526110112667084,-0.22223171591758729,-0.1691814363002777,-0.49254274368286135,-0.4805554151535034,0.22129462659358979,0.26293179392814639,-0.3984850347042084,-0.26254162192344668,0.01261869166046381,0.02834332175552845,0.41825786232948305,-0.17435619235038758,0.10051479190587998,0.0564563050866127,0.17701314389705659,-0.2530170977115631,-0.2010016143321991,-0.3443007171154022,-0.31525498628616335,0.14907193183898927,-0.22737616300582887,0.5286106467247009,-0.3643297851085663,0.41188833117485049,-0.3601970970630646,0.4047541618347168,0.4437171518802643,0.44829341769218447,-0.2701827585697174,0.33356571197509768,-0.34328603744506838,-0.39255785942077639,0.4303298592567444,0.14681246876716615,-0.49497145414352419,0.0957733541727066,0.05205677077174187,0.24013538658618928,-0.22307376563549043,-0.24179096519947053,0.26525580883026125,0.08357260376214981,-0.10600520670413971,0.2778571546077728,-0.18523137271404267,-0.33999475836753847,-0.06651477515697479,-0.16415220499038697,0.12351873517036438,-0.21071448922157288,-0.378985196352005,0.09012399613857269,0.02619602158665657,0.004621264990419149,0.26334047317504885,0.04708682745695114,0.24667148292064668,0.21081244945526124,0.394370436668396,-0.3584800064563751,-0.37772679328918459,-0.20078787207603455,0.10603781044483185,0.15545718371868134,-0.009556058794260025,0.17568658292293549,-0.06342926621437073,0.5536817312240601,-0.0067619821056723598,0.6114239692687988,-0.25867921113967898,0.39361149072647097,0.08640604466199875,-0.05083681270480156,-0.3133159875869751,-0.020632756873965265,0.06448180973529816,0.06638573110103607,-0.016882693395018579,0.05846458300948143,-0.624934732913971,-0.3940977156162262,-0.12047519534826279,-0.4932954013347626,-0.22021830081939698,-0.38082215189933779,-0.10156503319740296,-0.4151288866996765,0.06110058352351189,0.2565808892250061,0.15931002795696259,-0.1748887002468109,-0.08767107129096985,-0.20904703438282014,0.5736042261123657,-0.11487875133752823,0.2614714205265045,-0.22049404680728913,0.24779732525348664,-0.12481522560119629,0.19741865992546082,-0.002477009780704975,0.2988126575946808,0.05424559488892555,-0.030938103795051576,-0.04463300481438637,-0.0165354423224926,-0.38730233907699587,0.07615689933300019,-0.29246875643730166,0.32541415095329287,0.12758003175258637,0.27867984771728518,0.49129608273506167,-0.2413758933544159,0.004938670899719,-0.10659289360046387,-0.42195627093315127,-0.19787083566188813,0.33118736743927,0.017667358741164209,0.22887420654296876,0.2825070917606354,-0.3630099892616272,0.15328332781791688,-0.048562292009592059,0.13642485439777375,0.20470847189426423,0.4235956370830536,-0.03150703012943268,-0.051289234310388568,0.16492460668087007,0.21424035727977754,-0.002903598127886653,-0.28054362535476687,-0.18035250902175904,0.010723358951508999,-0.2703810930252075,-0.045147959142923358,0.28028249740600588,0.49905630946159365,-0.14126229286193849,0.1799301654100418,-0.35524728894233706,-0.3826588988304138,-0.3416024148464203,-0.057689204812049869,0.2626880407333374,-0.314242422580719,0.48042067885398867,-0.29631853103637698,-0.1736665964126587,0.7692983150482178,0.2049441784620285,-0.1698819398880005,0.14445056021213532,0.002106697531417012,0.027111081406474115,0.08808806538581848,-0.1622459888458252,-0.18012076616287232,-0.013557587750256062,0.35127130150794985,0.25280100107192995,0.2701505422592163,0.10293833166360855,-0.5506145358085632,-0.3661499321460724,-0.50188148021698,0.24038659036159516,0.015418495051562786,-0.19682739675045014,-0.22055114805698396,-0.23878854513168336,-0.18132448196411134,-0.19516338407993318,-0.508653998374939,0.013015100732445717,0.1519637405872345,-0.15570980310440064,-0.40892988443374636,-0.2858990728855133,-0.43636012077331545,-0.7492353320121765,-0.480471670627594,-0.3408151865005493,0.284373939037323,-0.29180148243904116,0.01551739126443863,-0.5584259629249573,0.5287824273109436,-0.3658617436885834,0.2624012529850006,0.22214023768901826,0.42593905329704287,0.23924730718135835,-0.10138307511806488,0.10777261108160019,0.19015152752399445,-0.3467455208301544,0.060815174132585528,0.08300258964300156,0.3584461510181427,0.08073888719081879,0.1672966480255127,-0.0909804105758667,-0.4478878080844879,-0.13160161674022675,-0.36931484937667849,-0.6904302835464478,-0.7676054239273071,-0.17788206040859223,-0.11608321964740753,-0.27505579590797427,0.06119052320718765,0.4925168454647064,-0.4916408061981201,0.023844672366976739,0.24860210716724397,0.36753612756729128,-0.2188655585050583,-0.10075293481349945,-0.26251494884490969,-0.1756211668252945,-0.0420885868370533,-0.21540415287017823,-0.2921628952026367,-0.2528946101665497,0.21111932396888734,0.33744096755981448,0.04435458406805992,-0.34812480211257937,-0.7983308434486389,-0.5992009043693543,-1.1703777313232422,-1.2021478414535523,-0.6957783102989197,-0.25431695580482485,-0.04471878707408905,0.15355801582336427,-0.23721829056739808,0.034731242805719379,-0.1683083027601242,0.20952777564525605,0.24464461207389832,-0.36604055762290957,0.0019870693795382978,-0.5420458316802979,-0.07154649496078491,0.40635839104652407,0.22683531045913697,-0.1183822900056839,0.434216171503067,0.21605372428894044,-0.17807957530021668,0.40976977348327639,0.1274692416191101,0.46281006932258608,-0.3422596752643585,-0.7617699503898621,-0.519800066947937,-0.6929532289505005,-0.37381914258003237,-0.23449744284152986,0.3851696848869324,0.3364183306694031,0.06592541933059693,0.4693681597709656,0.46281343698501589,-0.1660529524087906,0.12473174184560776,-0.12111508846282959,-0.2568989396095276,-0.32909342646598818,0.13384294509887696,0.25191617012023928,-0.30083343386650088,-0.11495581269264221,0.16702872514724732,0.09556958824396134,-0.44315582513809206,-0.021625390276312829,0.310194730758667,0.1736910343170166,0.2048785537481308,0.3269885182380676,-0.24024032056331635,-0.13994067907333375,-0.469820111989975,0.1375277191400528,0.2639850378036499,0.5274369716644287,0.19926008582115174,0.6751760840415955,0.3025256395339966,0.32732465863227847,0.2657454311847687,0.24269698560237885,0.04769594594836235,-0.34936487674713137,-0.2246183604001999,-0.5127383470535278,-0.3288881182670593,0.1998647004365921,0.36025989055633547,-0.33199796080589297,0.11215611547231674,-0.32414111495018008,-0.01455097459256649,0.15359598398208619,0.26638299226760867,0.2197095900774002,-0.0813085064291954,-0.31866374611854555,0.43964916467666628,0.3881722688674927,0.19254940748214723,-0.33037179708480837,0.5530094504356384,0.2897762954235077,0.5818709135055542,1.0028883218765259,0.3084566593170166,-0.055841993540525439,0.28817057609558108,0.015280304476618767,-0.08710094541311264,-0.08114030212163925,0.044649459421634677,-0.39661896228790285,0.06067623570561409,0.10631448030471802,-0.28848695755004885,0.43321889638900759,0.11126905679702759,-0.06177515164017677,-0.46199777722358706,-0.4125204086303711,-0.4914969205856323,0.4344622790813446,-0.026988185942173005,0.22460713982582093,0.2535300850868225,-0.2169412076473236,-0.06680484116077423,-0.15054951608181,-0.31116801500320437,0.48786041140556338,0.8215217590332031,0.35028085112571719,0.9826750755310059,0.5343114137649536,-0.15417207777500153,-0.37500885128974917,0.2242724448442459,-0.3159591257572174,0.062315601855516437,0.24103188514709474,-0.1687219738960266,0.3508753180503845,0.16864441335201264,0.17930017411708833,0.21690520644187928,0.2513747215270996,-0.45045867562294009,0.034650951623916629,-0.17323550581932069,-0.2248351126909256,-0.07500457018613816,-0.05755675211548805,0.00876592006534338,0.40087655186653139,-0.3867316246032715,-0.36541154980659487,-0.5005845427513123,-0.15217718482017518,-0.3090451657772064,0.08265692740678787,0.5124523639678955,0.07173339277505875,-0.08810891956090927,-0.4731965959072113,-0.07381200045347214,-0.6121363043785095,0.5006652474403381,0.29138994216918948,-0.03738471120595932,-0.180396169424057,0.010924025438725949,0.24135710299015046,-0.4040110409259796,0.15581829845905305,0.335035115480423,0.42799946665763857,0.32398557662963869,0.46386855840682986,0.4295906722545624,0.5299469232559204,-0.17507170140743257,-0.30435842275619509,-0.5916866064071655,-1.0087993144989014,-0.5590676665306091,-0.8939529657363892,-0.8132833242416382,-0.18101051449775697,-0.32377707958221438,-0.31722936034202578,-0.4582009017467499,-0.03773310407996178,-0.009269864298403263,0.21183894574642182,0.04718848690390587,-0.07035005837678909,-0.14956814050674439,-0.22138597071170808,-0.783306360244751,0.16005954146385194,-0.27516987919807436,-0.0281009953469038,0.17560189962387086,0.48156121373176577,0.3469076156616211,0.04088900610804558,0.13789698481559754,0.49405547976493838,0.3874337077140808,-0.3026089072227478,-0.7659424543380737,-0.5741810202598572,-0.8380228281021118,-1.184063196182251,-1.0857385396957398,-1.2840029001235963,-0.9802951216697693,-0.06866435706615448,-0.49191853404045107,0.37810689210891726,-0.1391821652650833,0.4795932173728943,-0.00661863386631012,-0.1312871277332306,0.10677236318588257,-0.5445427894592285,-0.3081788718700409,-0.38915953040122988,0.04750655218958855,-0.13155978918075562,-0.18713749945163728,0.17637142539024354,-0.18003639578819276,-0.3429335653781891,-0.28486084938049319,0.39915353059768679,-0.2399066835641861,-0.6982777714729309,0.010277912952005864,-0.5827863812446594,-0.7676569223403931,-0.6162128448486328,-0.3519505262374878,-0.7417044043540955,0.0788225457072258,-0.0838589146733284,-0.3824498951435089,-0.13762643933296204,0.019873959943652154,0.12270542979240418,0.13084015250205995,0.2209131270647049,-0.06681971251964569,0.07432160526514054,-0.026144007220864297,-0.15298950672149659,-0.05602261796593666,-0.3286023736000061,0.1838475614786148,-0.4843696057796478,-0.4870792627334595,0.15852177143096925,0.30742600560188296,0.5123205184936523,0.604579746723175,0.0863795354962349,-0.19138100743293763,0.35973578691482546,0.1790495365858078,0.41469624638557436,-0.23110239207744599,0.3230295777320862,-0.16465051472187043,-0.23906433582305909,0.18784312903881074,0.12372748553752899,-0.10451790690422058,-0.13970375061035157,0.10551413148641586,-0.2172040492296219,0.07832100987434387,-0.11470793187618256,-0.01562649942934513,0.3351278305053711,0.3083164691925049,-0.09635496139526367,0.1883978545665741,-0.47243404388427737,0.2409476786851883,-0.3972674012184143,0.014801468700170517,0.4030139744281769,0.4145694971084595,0.13700620830059052,0.4297195076942444,-0.09046653658151627,0.0714375451207161,0.019040901213884355,0.09847293794155121,0.14152994751930238,0.23071038722991944,0.3924867510795593,-0.08892816305160523,0.09142544120550156,0.0070644645020365719,0.3488399386405945,0.09485407918691635,-0.06718967109918595,-0.2656245231628418,-0.3555964231491089,-0.19957399368286134,0.013151376508176327,-0.3392689526081085,0.07229344546794892,0.41200268268585207,0.12124499678611756,-0.015047060325741768,0.42712223529815676,0.25869274139404299,-0.4375046491622925,0.06537488102912903,0.30883464217185976,0.16858822107315064,0.2390928864479065,0.4594675898551941,0.32608577609062197,0.2229386419057846,0.47004610300064089,-0.2177075445652008,0.5026666522026062,0.26193150877952578,-0.4013587236404419,0.38679495453834536,-0.1882835179567337,-0.09444645047187805,-0.2588121294975281,-0.17520208656787873,-0.19825813174247743,0.11078411340713501,0.025301791727542878,0.13502785563468934,-0.23029205203056336,0.38638755679130556,0.1380503922700882,-0.16495093703269959,-0.24724861979484559,0.31714335083961489,-0.013569596223533154,0.11472374200820923,0.3473128378391266,0.28799891471862795,0.6757555603981018,0.014865626581013203,0.25599929690361025,0.7128211259841919,-0.04521597921848297,0.20737478137016297,0.10892387479543686,-0.3690565824508667,0.2527633607387543,-0.2477169930934906,-0.11818493902683258,0.061767127364873889,0.27849289774894717,-0.31731003522872927,0.311993271112442,-0.004831947851926088,-0.07766866683959961,-0.1534561663866043,0.31247252225875857,0.14212554693222047,0.05989769473671913,0.08217450976371765,0.4354102611541748,-0.21570312976837159,0.1695752739906311,0.3509007692337036,-0.13970115780830384,-0.03874582424759865,0.6224684715270996,0.18740904331207276,0.5258649587631226,0.3058378994464874,0.6366685032844544,-0.052844371646642688,-0.35356172919273379,0.10345230251550675,0.041085436940193179,0.45498859882354739,0.5478103756904602,-0.22055354714393617,-0.33225730061531069,0.21667695045471192,0.021971261128783227,0.2139378935098648,-0.4639720916748047,-0.32834404706954958,0.02879920043051243,-0.1007964089512825,0.13755221664905549,0.39392101764678957,-0.017138350754976274,-0.4413418769836426,-0.09324422478675842,-0.40763184428215029,0.19963069260120393,-0.09402668476104737,-0.3203705847263336,0.15780562162399293,-0.21939097344875337,-0.021754298359155656,0.09138333797454834,0.3172551691532135,0.4194672703742981,0.01873129792511463,-0.002312311204150319,0.2473229318857193,0.34531334042549136,0.5434750914573669,-0.23673884570598603,0.08169744908809662,-0.16034173965454102,0.3041221499443054,0.2991253435611725,-0.30467677116394045,-0.3621591329574585,-0.34279370307922366,0.19873876869678498,0.35320186614990237,-0.31515932083129885,0.1747177392244339,-0.2333187758922577,-0.03433128818869591,-0.3487015962600708,0.48127126693725588,-0.33225107192993166,0.010998421348631382,-0.12587761878967286,-0.271821528673172,-0.4619303047657013,-0.3369976878166199,0.24941064417362214,-0.22792579233646394,-0.23191900551319123,0.19640779495239259,-0.405159592628479,-0.2770148813724518,0.2295115441083908,0.059122610837221149,0.018994072452187539,-0.4309488534927368,0.4798964262008667,0.04454675689339638,0.13819892704486848,0.08691450953483582,0.044908080250024798,-0.18933597207069398,0.29937970638275149,-0.18867257237434388,0.4746357202529907,0.14271904528141023,0.19677890837192536,-0.5022712349891663,0.17274238169193269,0.009801862761378289,0.13432516157627107,0.03427886962890625,0.13718344271183015,0.09534904360771179,-0.1897573471069336,0.2810204029083252,-0.4262036085128784,0.48618006706237795,-0.2387007772922516,0.483440637588501,0.19818343222141267,0.40781891345977785,0.4796959161758423,-0.3919222354888916,-0.001448490540497005,0.21114780008792878,0.31617414951324465,0.1809944063425064,0.2536677122116089,-0.3852057456970215,0.050075531005859378,0.28908681869506838,-0.5020477771759033,0.23214508593082429,-0.15768961608409882,-0.09878437221050263,0.1413796842098236,0.40508562326431277,-0.3087005615234375,-0.03577452525496483,-0.30339962244033816,0.33714431524276736,0.26076647639274599,0.025632668286561967,-0.10300681740045548,0.13913390040397645,0.31405898928642275,-0.14993916451931,0.39069104194641116,-0.39517831802368166,0.40035098791122439,-0.10690285265445709,-0.1801723837852478,0.030441636219620706,0.08701920509338379,-0.2980908155441284,-0.34917330741882326,-0.1229393482208252,-0.10968315601348877,0.2663761377334595,0.33658453822135928,-0.09750090539455414,0.3955152630805969,0.4203393757343292,0.2855905294418335,-0.44981151819229128,0.44569799304008486,0.339678019285202,-0.15715377032756806,-0.4310602843761444,-0.4450368583202362,-0.02690390683710575,-0.4512602686882019,0.06118384003639221,0.10440662503242493,0.12009423971176148,0.027450069785118104,-0.1909337192773819,0.2539198696613312,-0.011370973661541939,-0.336823970079422,-0.12632182240486146,0.06397239118814469,-0.3393063545227051,-0.21274903416633607,0.05864417552947998,0.2724846601486206,0.0917208194732666,-0.47358182072639468,-0.12431959807872772,-0.15073955059051515,0.13787280023097993,0.3499290943145752,0.21972240507602693,-0.21033135056495667,-0.7707014679908752,-0.06450073421001435,-0.2066153734922409,0.36288130283355715,-0.17553593218326569,-0.1585673838853836,0.3910066783428192,-0.3040204346179962,-0.1895732879638672,-0.23211169242858888,-0.13142311573028565,0.2950211465358734,-0.5157076120376587,-0.10685830563306809,-0.4664911925792694,-0.36048024892807009,-0.2338799089193344,-0.17610684037208558,0.488356351852417,0.10631883144378662,0.18201817572116853,0.10223779827356339,-0.2842896282672882,-0.6155046224594116,-0.08142437785863877,-0.07945713400840759,-0.6073302626609802,-0.19493632018566132,0.026528187096118928,-0.3375073969364166,0.044639650732278827,0.24490275979042054,-0.23375092446804048,0.12981197237968446,-0.2886231243610382,0.002787928329780698,0.034805577248334888,-0.020219482481479646,0.03637576848268509,-0.28380367159843447,0.2542372941970825,-0.4655756950378418,-0.1735420823097229,-0.2667466700077057,-0.1400734782218933,-0.04168926179409027,0.42108678817749026,-0.10388803482055664,-0.2888694405555725,0.4198683202266693,-0.4134306013584137,0.0009198284824378789,-0.2321116030216217,-0.5399956703186035,-0.2889523208141327,-0.05941479653120041,-0.09300559759140015,-0.08384449034929276,0.48443403840065,0.671804666519165,0.0397329218685627,-0.07360351085662842,-0.3256189525127411,-0.1453070193529129,-0.28849878907203677,-0.411460280418396,-0.436337947845459,-0.3303837478160858,0.04960712790489197,-0.6164789199829102,-0.3677048981189728,0.2056233435869217,-0.20403850078582765,0.06546543538570404,0.041776061058044437,-0.22592605650424958,0.2604789733886719,0.18951527774333955,-0.03279644250869751,-0.24415737390518189,0.13018955290317536,0.4881744086742401,0.08246232569217682,-0.28912872076034548,-0.15895657241344453,0.03743722289800644,0.1420542448759079,0.4247050881385803,-0.025999316945672036,0.22371791303157807,-0.1387280523777008,-0.11497219651937485,0.09235115349292755,0.34895578026771548,0.11941114068031311,0.7191781401634216,0.5889835953712463,0.17147406935691834,0.05729048326611519,-0.528426468372345,-0.2582052946090698,-0.19273075461387635,-0.40626320242881777,-0.2877187132835388,0.37814608216285708,-0.2931315004825592,0.141177698969841,0.15131178498268128,-0.36230218410491946,0.21723514795303346,-0.5385624766349793,0.33450907468795779,-0.07960382848978043,-0.050077736377716067,-0.24074137210845948,-0.038609035313129428,-0.5776135325431824,0.13755005598068238,-0.021889200434088708,0.2291349619626999,0.3184835910797119,0.1929590404033661,-0.052034568041563037,0.007111846003681421,-0.17855645716190339,0.423443466424942,-0.027959244325757028,-0.4052920937538147,-0.2593544125556946,-0.017326099798083307,-0.32602861523628237,-0.3431828022003174,-0.22850528359413148,-0.23561371862888337,0.28418004512786868,0.5082723498344421,-0.20752739906311036,0.35336342453956606,0.4984356760978699,0.11377200484275818,0.35258516669273379,-0.02464674971997738,0.5534112453460693,0.4533967077732086,0.25032296776771548,0.19343999028205872,0.4440942406654358,0.4637969732284546,0.37816593050956728,0.2748449742794037,0.40449094772338869,-0.02263176441192627,0.5129185318946838,0.6868799924850464,0.32244873046875,-0.17698107659816743,0.11632976680994034,0.24444864690303803,-0.23931282758712769,-0.35754290223121645,0.43080171942710879,-0.06599438935518265,0.5048861503601074,0.5764463543891907,0.5157498717308044,-0.01729804091155529,0.09228303283452988,0.43576595187187197,-0.1564909815788269,0.4579525291919708,0.053308431059122089,0.35817596316337588,0.16605277359485627,0.32255589962005618,0.28055304288864138,0.4365035891532898,0.8030849099159241,0.6324515342712402,0.8433851599693298,0.6946202516555786,-0.054054323583841327,1.2066811323165894,0.21927766501903535,-0.02464958466589451,-0.24412070214748383,0.4224373400211334,-0.35801586508750918,-0.07377637177705765,0.21490894258022309,0.4308457374572754,-0.21748878061771394,0.1889822632074356,0.1275189220905304,-0.05718424171209335,0.2931358516216278,0.020955713465809823,0.3529474437236786,-0.1588553786277771,0.5108799338340759,0.6238627433776856,0.13785870373249055,0.0726214274764061,0.23751065135002137,1.2579010725021363,0.5540348887443543,0.583267331123352,0.27590394020080569,0.6262374520301819,0.7170189619064331,0.6223341226577759,0.3232227563858032,-0.04791935533285141,-0.4504598379135132,0.3207252621650696,-0.44555696845054629,-0.12418308109045029,-0.31553182005882265,0.1098257452249527,-0.3982703387737274,-0.03141225501894951,0.3641526401042938,0.7329456806182861,0.11760526150465012,0.17616860568523408,0.16849496960639954,0.29920464754104617,0.020256463438272477,0.5035662651062012,-0.3466230630874634,-0.47400593757629397,-0.5899310111999512,0.4745538532733917,0.003247163724154234,0.29941391944885256,0.3346312940120697,0.4694369435310364,0.7982345819473267,0.6882144212722778,0.8277423977851868,0.20034679770469666,0.06548716872930527,-0.10858718305826187,0.33357512950897219,0.1876784861087799,0.45776093006134035,0.5041395425796509,0.08670900017023087,0.24830085039138795,0.7295278906822205,-0.06623315066099167,0.2940507233142853,0.18806195259094239,-0.04426189884543419,0.0061384341679513458,-0.12340027838945389,0.06570495665073395,-0.17046964168548585,-0.261187881231308,-0.6317763924598694,-0.6005836129188538,-0.27981436252593996,-0.44885680079460146,0.08755573630332947,0.359466016292572,0.28191840648651125,0.4456244707107544,0.45936161279678347,-0.1784650981426239,-0.03770986571907997,0.21916912496089936,-0.37760865688323977,-0.08503271639347077,0.13130319118499757,0.07783092558383942,-0.24541565775871278,-0.09558897465467453,0.3286794424057007,0.3360372483730316,-0.03429887816309929,0.16574901342391969,-0.12360424548387528,-0.1875649243593216,0.4267619252204895,-0.26657161116600039,-0.5214918255805969,-0.30829501152038576,-0.8348227143287659,-0.15601259469985963,-0.34866297245025637,-0.09148623049259186,-0.26317864656448367,-0.15840491652488709,0.45403048396110537,0.38780921697616579,0.47213825583457949,0.0796072706580162,-0.0017131203785538674,0.40175363421440127,0.189297154545784,-0.2547832429409027,0.07700841873884201,0.23233965039253236,0.45531895756721499,-0.12662151455879212,0.31638050079345705,0.30209994316101076,0.15212184190750123,0.11373323947191239,0.001338499248959124,0.027347959578037263,-0.12890537083148957,-0.24377204477787019,-0.016343284398317338,-0.28866317868232729,-0.5069537162780762,-0.3048740029335022,-0.6184646487236023,-0.3454367518424988,0.41691476106643679,0.2387399673461914,-0.22886089980602265,0.26981860399246218,0.35947713255882265,0.20146498084068299,-0.4910464584827423,-0.35035252571105959,0.1723659336566925,-0.2922682762145996,-0.18660950660705567,-0.0017910392489284278,-0.30643823742866518,-0.12118364870548248,-0.4966084361076355,0.04293899983167648,-0.224812850356102,0.32671549916267397,0.21936441957950593,0.42446082830429079,-0.11937683075666428,-0.17706264555454255,-0.540037214756012,-0.6484165787696838,-0.8369002938270569,-0.5290505886077881,0.04801907762885094,-0.18445172905921937,-0.6318610906600952,-0.3495386838912964,0.2344176322221756,-0.16234445571899415,-0.2762224078178406,-0.17700454592704774,-0.29241329431533816,0.06938105821609497,-0.039582688361406329,-0.4290388822555542,-0.11455147713422775,-0.5116647481918335,-0.040740180760622028,0.5304915904998779,-0.23777739703655244,0.5832183957099915,0.6198474764823914,0.6128170490264893,0.4676612913608551,0.15711699426174165,0.11430466920137406,-0.3708358407020569,-0.7322162985801697,-0.3880285322666168,-0.3638317584991455,0.029498716816306115,-0.05827251821756363,-0.19544477760791779,-0.5029413104057312,-0.43968814611434939,0.11612895131111145,0.23048001527786256,-0.2959362864494324,-0.5480844378471375,-0.2118198126554489,-0.29498377442359927,0.27768421173095705,-0.09010183811187744,-0.4038749635219574,-0.4163016378879547,-0.07750225067138672,0.0760483518242836,0.04422536492347717,0.35187309980392458,-0.04897620528936386,0.39926275610923769,0.13015715777873994,0.04101796820759773,0.5807212591171265,-0.4492267072200775,-0.13504838943481446,-0.32166364789009097,0.13039687275886537,-0.47973284125328066,-0.551034688949585,-0.028950639069080354,-0.024039441719651223,-0.14007891714572907,0.34770533442497256,-0.5692756772041321,0.19793295860290528,-0.13547535240650178,-0.2140425741672516,0.13940545916557313,0.0663461908698082,0.1390295773744583,0.39558055996894839,-0.5237155556678772,-0.44521909952163699,-0.10802073031663895,-0.3054368197917938,-0.10467950999736786,-0.007333348039537668,0.2116827517747879,-0.07076456397771836,0.26590824127197268,0.00393659807741642,-0.22206830978393556,-0.5747230052947998,-0.43033331632614138,-0.1697535216808319,0.15508560836315156,-0.5055486559867859,-0.5165684223175049,-0.32361656427383425,-0.34260544180870058,0.07129479944705963,0.06292953342199326,-0.3169793486595154,0.03866124898195267,-0.43628185987472536,-0.2683415710926056,-0.39650535583496096,-0.26003366708755495,-0.13700881600379945,-0.47287094593048098,-0.17446701228618623,-0.3278675079345703,-0.2663157880306244,0.36769843101501467,0.07869336009025574,0.4464177191257477,-0.09070280939340592,-0.06007939577102661,0.1358720064163208,-0.043365709483623508,-0.2027791291475296,-0.17276111245155335,-0.4434576630592346,-0.3116821050643921,-0.06734549254179001,0.011447935365140438,-0.30790942907333376,-0.05839778482913971,-0.4967893958091736,-0.21232551336288453,-0.31799811124801638,0.1871737241744995,0.1153971254825592,0.11766837537288666,0.1593405157327652,0.1939694732427597,0.07271498441696167,-0.10690747946500778,-0.3200004994869232,0.5280193090438843,0.10834293067455292,-0.16369138658046723,0.3368288278579712,0.06626683473587036,0.18470770120620728,0.19677399098873139,0.22924333810806275,0.43483152985572817,0.13834024965763093,-0.37957340478897097,-0.03043096326291561,-0.25143080949783327,-0.09598461538553238,-0.3356788158416748,-0.3048919439315796,-0.1352652758359909,0.28347480297088625,-0.22608830034732819,-0.5559439063072205,-0.3716548979282379,0.3440870940685272,-0.0077542588114738468,0.37020885944366457,0.005266530904918909,0.33111071586608889,-0.15043818950653077,-0.36524319648742678,-0.11543022096157074,-0.4658154845237732,0.4262048304080963,-0.49465247988700869,0.1427682340145111,-0.004438119940459728,0.004591120406985283,0.06751852482557297,0.38383135199546816,0.16453827917575837,0.15260526537895204,-0.6373038291931152,0.1318351775407791,-0.1740838885307312,-0.38422495126724245,-0.3029195964336395,-0.14773140847682954,0.1805628538131714,-0.5310418605804443,-0.5479278564453125,0.4095235764980316,0.36862117052078249,0.17501738667488099,0.1832803189754486,-0.28830426931381228,0.155927374958992,-0.17779232561588288,-0.15847647190093995,0.40674248337745669,0.4960132837295532,0.09105926007032395,0.3421524167060852,0.03305351734161377,-0.07061679661273956,0.18963508307933808,0.4937010407447815,0.4745282232761383,0.41627126932144167,0.37436991930007937,0.22240561246871949,-0.18954099714756013,0.07422386109828949,-0.19100657105445863,-0.48707646131515505,-0.44166114926338198,-0.3707403242588043,-0.6298138499259949,-0.04293980449438095,0.07469198852777481,0.2399362027645111,0.4750598967075348,-0.24065569043159486,-0.1701444685459137,-0.11502187699079514,-0.4002963900566101,-0.5299869179725647,-0.03587844595313072,0.015747496858239175,0.05259286239743233,-0.09113001078367233,0.5353164672851563,0.36135968565940859,0.246512770652771,0.5018282532691956,0.09093043208122254,0.5662987232208252,-0.027891075238585473,0.7001802325248718,0.06911612302064896,-0.13161858916282655,-0.5175769925117493,0.16871236264705659,0.04592218995094299,-0.5349246263504028,-0.4105710983276367,-0.08842185139656067,-0.33641165494918826,0.3873920142650604,-0.3299403190612793,0.24801696836948396,0.11443018913269043,0.3275236487388611,-0.05897687003016472,-0.3285064399242401,-0.5375590920448303,-0.2487277090549469,-0.5611218810081482,-0.024224834516644479,0.013307717628777027,-0.27734097838401797,0.3996706008911133,0.2636995315551758,0.1711825281381607,0.5849050283432007,0.7054376602172852,0.15731368958950044,0.6409574151039124,0.025863472372293474,0.19849513471126557,0.07287165522575379,-0.4409661889076233,0.21782755851745606,-0.16054262220859528,-0.023279760032892228,-0.40182143449783327,0.009035567753016949,0.24768586456775666,0.13483096659183503,-0.01491415686905384,0.010255358181893826,0.06604338437318802,0.1670636087656021,-0.6110381484031677,0.20755016803741456,0.11289148032665253,-0.5089384913444519,-0.13804510235786439,0.14568635821342469,-0.5266281366348267,-0.1966368854045868,-0.319747656583786,-0.2556530237197876,-0.10851523280143738,0.5846638679504395,-0.08065647631883621,0.5939905047416687,-0.2588280439376831,-0.14331701397895814,0.028776463121175767,0.030849188566207887,-0.1454697996377945,0.5027872323989868,-0.0016342122107744218,0.2726842164993286,0.2501843273639679,-0.20562854409217835,-0.2453317940235138,-0.37129342555999758,0.08591388165950775,0.24135464429855348,0.37850192189216616,-0.0626942366361618,-0.5055760741233826,0.25439608097076418,0.15199559926986695,-0.6830018758773804,0.26214927434921267,-0.3493127226829529,0.24281267821788789,-0.14816196262836457,0.4134948253631592,0.2476867437362671,-0.09484421461820603,0.0037310319021344187,0.03570999577641487,-0.3142431080341339,0.4317489266395569,0.3306106626987457,-0.3684157729148865,-0.37292006611824038,-0.3408414125442505,-0.26794731616973879,0.310807466506958,-0.4051409959793091,-0.2513383626937866,-0.3701134920120239,-0.2654573917388916,-0.49163728952407839,0.32667338848114016,-0.2714654803276062,-0.2572198212146759,0.3042546808719635,-0.0284385085105896,0.31550464034080508,0.4994593560695648,0.05043439939618111,-0.3202038109302521,0.209339439868927,0.2915119230747223,-0.14333559572696687,-0.18175387382507325,0.248100146651268,0.3935730755329132,-0.30759069323539736,-0.30606186389923098,0.4619623124599457,-0.2427627295255661,-0.08590269088745117,-0.04827094078063965,-0.4137512445449829,0.4082498550415039,-0.25377774238586428,0.023456528782844545,-0.4968346655368805,-0.2149161994457245,0.27639612555503847,-0.4915699064731598,0.3857820928096771,-0.488008052110672,-0.12792173027992249,-0.29502108693122866,-0.43710651993751528,-0.06144270300865173,0.30591315031051638,0.39636674523353579,0.17191879451274873,-0.013006627559661866,0.4575236737728119,0.22886092960834504,-0.29561319947242739,-0.4808022081851959,-0.1933353841304779,-0.2394849956035614,-0.2008093297481537,-0.0925474464893341,-0.4270595610141754,-0.20725330710411073,-0.4934968054294586,0.47056397795677187,-0.459623247385025,-0.10264042019844055,0.1155765950679779,-0.08725813031196594,-0.4283471405506134,-0.17684078216552735,-0.4513832926750183,0.47773391008377077,-0.4989989995956421,-0.47993579506874087,0.14716768264770509,0.4112735092639923,0.25661465525627139,-0.34468522667884829,-0.25741299986839297,-0.4803068935871124,0.2542266249656677,0.18945325911045075,0.19285798072814942,-0.4765002429485321,-0.1954297423362732,-0.35821565985679629,-0.2770894467830658,-0.28458747267723086,0.013694261200726033,-0.23313090205192567,-0.013454930856823922,-0.06555099040269852,0.325224369764328,-0.1326693296432495,0.21426792442798615,-0.04545244574546814,-0.028010305017232896,-0.38293325901031496,0.170179083943367,0.020348258316516877,-0.21702587604522706,0.0548049658536911,-0.4122884273529053,0.4855513274669647,-0.2546193301677704,0.04970453307032585,-0.3578121066093445,-0.11132093518972397,-0.2609344720840454,0.0371173731982708,0.20737430453300477,-0.1600402295589447,0.08495388180017472,-0.5549030900001526,0.2769310474395752,0.18456360697746278,-0.19329819083213807,0.23887401819229127,0.4941638112068176,0.4071211516857147,0.05987270176410675,0.12056203186511994,0.21569238603115083,0.06518364697694779,-0.35108283162117007,0.2970708906650543,0.16385696828365327,0.06558763980865479,0.419582724571228,-0.39860498905181887,0.24537980556488038,-0.06922060996294022,0.3173796534538269,0.20347067713737489,0.06373292952775955,-0.4303412437438965,-0.11580511927604675,-0.1717289686203003,-0.008197343908250332,-0.42868244647979739,0.19315111637115479,-0.06437800824642182,-0.3551994860172272,-0.5116890072822571,0.11092538386583328,-0.4399157464504242,0.47437405586242678,0.24091596901416779,0.27524885535240176,-0.3697207272052765,-0.1517707109451294,-0.06713157892227173,-0.4647165834903717,-0.18394610285758973,-0.1697428822517395,0.30493032932281496,0.2607070803642273,-0.00763507978990674,0.28345340490341189,0.15853334963321687,0.6640148162841797,0.048655517399311069,0.2995761036872864,0.14298474788665772,0.07333512604236603,0.46782732009887698,0.09770028293132782,0.48027464747428896,-0.07345596700906754,-0.3225680887699127,0.052923694252967837,-0.11005263775587082,0.44735270738601687,0.09101036190986633,-0.011584018357098103,0.21584051847457887,0.10197672247886658,-0.21884915232658387,0.3284831941127777,-0.2958909273147583,-0.5258078575134277,0.06614328175783158,-0.08460594713687897,0.14661577343940736,0.38009583950042727,-0.4142020344734192,0.2185494750738144,0.5647668242454529,-0.25557103753089907,0.1852375566959381,0.03516397252678871,-0.31241855025291445,0.5817388892173767,0.4093713164329529,0.2546505033969879,0.05293735861778259,0.37811529636383059,0.8709866404533386,-0.021173804998397828,0.03222626820206642,0.3393126130104065,0.6879483461380005,0.4955359697341919,0.023432740941643716,-0.21079084277153016,0.07511766254901886,-0.28677189350128176,0.4311937093734741,0.14698339998722077,0.10050468146800995,-0.1502075493335724,0.11211037635803223,0.16300800442695619,0.4727150797843933,0.033194977790117267,-0.290867418050766,0.040283817797899249,-0.27143052220344546,-0.14005285501480103,0.08967632055282593,-0.21847404539585114,0.10538962483406067,-0.012112717144191265,0.3299737870693207,0.09950457513332367,0.49561724066734316,0.05365561693906784,0.27138930559158327,0.13219372928142548,0.26105421781539919,0.32347190380096438,-0.2053758203983307,0.43960919976234438,0.18515294790267945,-0.3753960132598877,0.20266859233379365,0.3570729196071625,-0.5314600467681885,-0.06797270476818085,-0.011365726590156556,0.017226379364728929,0.08497120440006256,0.07732058316469193,-0.24892474710941316,-0.26426416635513308,-0.12122471630573273,-0.17311716079711915,-0.07553091645240784,-0.36046314239501955,0.04874546453356743,0.4590982496738434,0.22133907675743104,-0.07199309766292572,0.5270461440086365,0.5565155148506165,0.7008771896362305,-0.21091514825820924,0.13492944836616517,0.483491986989975,-0.4367971122264862,0.27295732498168948,0.12881387770175935,-0.017251336947083474,-0.2939840853214264,0.4350287914276123,0.11292210966348648,0.2513713538646698,0.5435478687286377,-0.021839044988155366,0.6728917956352234,-0.2675686180591583,0.06986626982688904,-0.045656781643629077,-0.14172549545764924,0.1513858139514923,-0.1174069195985794,0.17851145565509797,-0.22710198163986207,-0.06744971126317978,0.1407255232334137,0.23362822830677033,0.2949414849281311,0.7416921854019165,0.006612926255911589,0.17638520896434785,0.3454711139202118,-0.2530554234981537,0.045741718262434009,-0.030805744230747224,0.4848746061325073,-0.1637599915266037,0.20199145376682282,-0.013334746472537518,0.10652507096529007,0.5983231663703919,0.4915493428707123,0.4229571521282196,0.2904249131679535,0.5423381924629211,0.4456723630428314,-0.028050996363162996,-0.03570191562175751,-0.5669831037521362,-0.7183739542961121,-0.4992372393608093,0.37317416071891787,-0.11564437299966812,-0.16189025342464448,0.3102884590625763,0.17706406116485597,0.7555655837059021,0.7489712834358215,-0.09723666310310364,-0.2772732377052307,0.08775004744529724,0.07753347605466843,-0.4019516706466675,-0.11768198758363724,-0.5089569687843323,-0.1940854787826538,-0.11159514635801316,0.2978048324584961,0.2044597864151001,0.4220034182071686,0.8602582812309265,0.8050322532653809,0.3862602114677429,0.26117485761642458,0.013971813954412938,-0.8399357795715332,-0.8378770351409912,-0.6235541105270386,-0.3660772442817688,-0.12658080458641053,-0.38577187061309817,0.29887738823890688,-0.05927116423845291,0.3025459051132202,0.38903555274009707,0.4208163917064667,-0.27649906277656557,0.38829562067985537,-0.06607462465763092,0.48796412348747256,-0.31508293747901919,-0.39980268478393557,0.16950039565563203,0.33191558718681338,0.37119707465171816,-0.1750921607017517,-0.13688044250011445,0.5579897165298462,-0.3301544189453125,-0.11746542155742645,-0.4484941363334656,-0.9022677540779114,-0.35021358728408816,0.040118709206581119,0.06496750563383103,-0.27305153012275698,0.2576097846031189,-0.2501504123210907,0.26989802718162539,0.3726058304309845,0.24883058667182923,-0.2192733883857727,0.1494988650083542,-0.15678785741329194,-0.04891045764088631,-0.09348978102207184,0.33385318517684939,-0.04475099593400955,-0.10174515098333359,0.07801532745361328,0.3163284361362457,0.30968108773231509,0.05908945947885513,-0.18381313979625703,-0.15109211206436158,-0.4629162549972534,-0.5488600134849548,-0.7219780683517456,-0.5429001450538635,-0.2368074357509613,0.09408588707447052,0.16904722154140473,0.0939047560095787,-0.17827607691287995,-0.01023409329354763,0.41388165950775149,-0.029373997822403909,0.07514611631631851,0.31677836179733279,0.07930590212345123,-0.23866954445838929,0.011915739625692368,0.04599493741989136,0.2197495400905609,-0.06325041502714157,-0.02669219672679901,0.02760830894112587,0.35977521538734438,-0.43932199478149416,-0.2841412127017975,-0.7188686728477478,-0.15438660979270936,-0.842792272567749,-0.7390239834785461,-0.41279375553131106,-0.4750712513923645,-0.03845251351594925,0.4371774196624756,0.24157699942588807,0.05225016176700592,0.071204774081707,-0.07752115279436112,0.4742621183395386,-0.026828687638044359,0.5208045244216919,0.11438760906457901,0.3683706521987915,0.017336763441562654,0.01932653784751892,0.08184065669775009,-0.056116171181201938,0.2237839549779892,0.3098146319389343,0.3385946750640869,-0.2494538128376007,-0.10222125798463822,-0.022179298102855684,-0.470027893781662,-0.25293007493019106,-0.7728776931762695,-0.8734034299850464,-1.1000611782073975,-0.4368825852870941,-0.1865006685256958,-0.21560730040073396,0.48791220784187319,-0.041683342307806018,0.5544981956481934,0.2594909369945526,-0.10076119005680084,-0.12767693400382996,-0.23757201433181764,0.27559617161750796,0.04896829277276993,0.07980240881443024,0.08208690583705902,-0.5585983991622925,-0.0326969176530838,-0.6222200393676758,0.18254174292087556,0.031130297109484674,-0.14523576200008393,-0.413144052028656,0.21628527343273164,0.07582825422286987,-0.06799013912677765,0.28967341780662539,-0.5101833939552307,-0.14462696015834809,-0.6085836291313171,-0.6737564206123352,-0.27945902943611147,-0.09015089273452759,0.23367206752300263,-0.06922144442796707,0.5243951082229614,0.5011199712753296,-0.11628815531730652,0.020266955718398095,-0.20355871319770814,-0.41594305634498598,-0.10107657313346863,-0.5514089465141296,-0.5892219543457031,-0.8296451568603516,-0.3367975950241089,0.186262309551239,0.04092780873179436,0.22363638877868653,0.19975252449512483,-0.4854396879673004,-0.04954204708337784,0.1771974116563797,0.10400183498859406,-0.31411445140838625,0.08551882952451706,-0.28203991055488589,-0.6335664987564087,-0.373731791973114,0.3354220688343048,-0.32376742362976076,-0.2726956307888031,0.33363041281700137,0.12039579451084137,-0.04283805564045906,0.44582998752593996,-0.30737510323524477,-0.14732787013053895,-0.029650140553712846,-0.1271408200263977,-0.1101526990532875,-0.2654121220111847,-0.20000940561294557,0.21131116151809693,0.5715169906616211,-0.2727237343788147,-0.3568628430366516,0.04835554584860802,-0.3486889898777008,-0.21824423968791963,-0.020910972729325296,0.6941685080528259,0.3778682053089142,0.12077728658914566,-0.21692991256713868,-0.4360986351966858,0.30626755952835085,-0.2342986911535263,-0.30656546354293826,0.20056329667568208,0.6597549319267273,0.37302663922309878,-0.3314604163169861,0.2588578760623932,0.2245226800441742,0.3927503228187561,-0.16455598175525666,0.1053064689040184,-0.09155614674091339,0.43552565574645998,-0.42432647943496706,0.023582611232995988,-0.09775444120168686,-0.2714608311653137,0.3899655044078827,-0.293622761964798,0.16588124632835389,-0.3344375491142273,0.4309091866016388,0.17588454484939576,0.1430692970752716,0.4004242420196533,0.31260907649993899,0.10765645653009415,-0.32119911909103396,-0.011978375725448132,0.23687826097011567,-0.06336233019828797,0.1270797848701477,-0.2663584053516388,0.23776982724666596,-0.6887366771697998,-0.24091388285160066,0.16396963596343995,0.3026869595050812,0.19105824828147889,-0.14283259212970735,-0.2219470739364624,0.3093704283237457,0.09591784328222275,0.6521099805831909,0.6482148766517639,0.3193369209766388,-0.31943240761756899,-0.09185589849948883,0.2602227032184601,0.1380780190229416,0.041827864944934848,0.09824781864881516,0.06303656846284867,0.5245488882064819,0.5482270121574402,0.4490068554878235,0.18568441271781922,0.12862622737884522,0.11349903792142868,0.11198238283395767,0.5283836722373962,0.05553947016596794,-0.16160736978054048,0.11806692183017731,-0.057596854865550998,0.3495056629180908,0.011434596963226796,0.5053992867469788,0.3182380497455597,0.05837403982877731,0.11020933091640473,0.4790964722633362,0.1768837869167328,-0.09149865806102753,0.012884661555290223,-0.41663041710853579,-0.3690086305141449,-0.1546996533870697,0.20074167847633363,0.07842487096786499,0.8490312695503235,0.9852777719497681,0.48234987258911135,0.5868220329284668,0.5860955715179443,0.08757201582193375,0.39274242520332339,0.16172897815704347,0.21177178621292115,-0.4059200882911682,0.23612108826637269,-0.0941276028752327,0.2824263870716095,0.25320965051651,0.3058176338672638,0.47028714418411257,0.6677360534667969,0.2997172474861145,0.6127819418907166,-0.024624548852443696,-0.21312713623046876,-0.45001980662345889,-0.437343955039978,0.1878703087568283,-0.18191243708133698,0.37980014085769656,0.32635486125946047,0.18705761432647706,0.07906579971313477,0.20410498976707459,0.6250499486923218,-0.18199996650218965,0.31538090109825137,0.28359487652778628,0.46835973858833315,0.0550665408372879,0.15070867538452149,0.2771337926387787,0.18900687992572785,0.0033649783581495287,0.2445615977048874,-0.15559245645999909,-0.477853000164032,-0.1921735256910324,0.5394511222839356,0.6738101840019226,0.4855225384235382,-0.31747111678123476,0.14423556625843049,0.19728419184684754,0.20292086899280549,0.04760662466287613,-0.4005729556083679,0.23442183434963227,-0.04199746623635292,0.38187846541404726,0.6087287068367004,0.03310113400220871,-0.19900037348270417,0.24302980303764344,0.036077357828617099,-0.002269519492983818,-0.11017975956201554,-0.07186415046453476,0.010734123177826405,-0.05572352930903435,0.28544026613235476,-0.11494112014770508,0.32568585872650149,0.354379802942276,0.16969917714595796,0.33822333812713625,0.04603505879640579,0.008793442510068417,0.19047047197818757,-0.21697880327701569,-0.24289104342460633,-0.27824994921684267,-0.4788772165775299,0.2632831037044525,-0.4723048508167267,0.1458934247493744,0.2855866849422455,0.06824382394552231,-0.22514957189559937,-0.13757939636707307,0.25347450375556948,-0.05649146810173988,-0.005393815692514181,0.16232028603553773,0.10995039343833924,0.3950245678424835,0.38462236523628237,-0.013761685229837895,0.3266606330871582,0.5072293877601624,-0.0020509923342615368,0.49447304010391238,0.21114732325077058,0.394530326128006,0.131188303232193,-0.0063339462503790859,0.032105911523103717,0.39709922671318056,0.28735196590423586,0.026041949167847635,-0.024539485573768617,-0.179275244474411,0.2362324744462967,0.37279489636421206,-0.14873723685741425,0.32267773151397707,-0.26843729615211489,-0.32977283000946047,-0.6381929516792297,-0.765084445476532,-0.11167871952056885,-0.09787941724061966,-0.014541980810463429,0.10611218214035034,0.5402189493179321,0.5137439966201782,0.191950261592865,0.5701050758361816,-0.27948248386383059,0.06710213422775269,0.14878176152706147,0.13989169895648957,-0.4945293664932251,-0.38818758726119997,-0.19011777639389039,-0.14472202956676484,0.16519306600093842,0.3789675533771515,-0.5042698383331299,0.43585214018821719,0.3664402663707733,0.4300025403499603,-0.47577524185180666,-0.1812111884355545,0.20802956819534303,-0.26973456144332888,-0.43199875950813296,-0.2754306197166443,0.3028463125228882,0.20233434438705445,-0.19556625187397004,0.40577778220176699,-0.41790640354156496,0.11731292307376862,0.44913673400878909,0.6146280765533447,0.269183486700058,-0.3514535129070282,-0.03474711254239082,-0.5556555390357971,-0.3290591835975647,-0.30073466897010805,-0.4565359055995941,-0.4084472954273224,0.046373315155506137,-0.1075734868645668,0.022080764174461366,0.38445553183555605,-0.2266988456249237,0.44934913516044619,-0.21101181209087373,0.003477307502180338,-0.15949666500091554,0.2996801733970642,-0.041697584092617038,-0.46269142627716067,0.22519172728061677,0.020322255790233613,-0.30101847648620608,0.27362051606178286,-0.6314597129821777,-0.21663005650043488,-0.18770428001880647,-0.42847758531570437,0.040234602987766269,-0.3762565851211548,0.2947588562965393,-0.34153977036476138,-0.22494417428970338,-0.09427927434444428,0.13818199932575227,-0.43903204798698428,-0.27150264382362368,-0.28772464394569399,-0.034331511706113818,-0.429963618516922,-0.08911266922950745,0.3129344880580902,-0.10373392701148987,-0.16113895177841187,-0.26529771089553835,-0.032313812524080279,-0.42743921279907229,-0.43117406964302065,0.005571362562477589,0.19357222318649293,0.10981865227222443,0.4197689890861511,-0.03485700488090515,-0.13580158352851869,-0.1006513237953186,0.1650795042514801,-0.17017965018749238,-0.24968509376049043,-0.4176872968673706,-0.4301913380622864,0.257246196269989,-0.2094707190990448,-0.3782956898212433,0.3575941026210785,-0.2607934772968292,-0.36410894989967348,-0.22408422827720643,0.2891760468482971,-0.19553928077220918,0.19260990619659425,0.12738800048828126,-0.20035819709300996,0.013995010405778885,-0.4155275225639343,-0.15749315917491914,-0.30698472261428835,0.14254331588745118,-0.1491357535123825,0.11060795187950134,0.412567138671875,0.4759633541107178,0.33000797033309939,-0.2713204026222229,-0.32132798433303835,0.40310531854629519,-0.3092886805534363,-0.18837933242321015,0.43606632947921755,0.4291439652442932,0.09727475047111511,0.44920510053634646,-0.21746961772441865,0.02642790973186493,-0.1117880642414093,0.15994930267333985,0.44015687704086306,0.14240610599517823,-0.31575149297714236,0.21286392211914063,-0.41369372606277468,0.010056297294795514,-0.435928612947464,0.08354052156209946,0.06743679940700531,-0.12648969888687135,-0.17700637876987458,0.1288316398859024,-0.06668141484260559,-0.04267058148980141,0.23351143300533296,0.35348352789878847,-0.047231655567884448,0.01361773256212473,-0.4708704352378845,0.3675006330013275,-0.25916117429733279,0.08444716036319733,-0.13395839929580689,-0.4589921832084656,0.48637622594833376,0.28639715909957888,0.23626315593719483,-0.4189532399177551,-0.023849323391914369,-0.3867012858390808,0.21919429302215577,-0.24928037822246552,-0.2794370651245117,-0.1818941980600357,0.3159627914428711,0.3291498124599457,-0.37791064381599429,-0.45103374123573305,0.2051706314086914,-0.3314479887485504,-0.1920885145664215,-0.052601151168346408,0.25528189539909365,0.16337163746356965,0.041998185217380527,-0.437198668718338,-0.03651520982384682,-0.08589589595794678,-0.04068819805979729,-0.28159070014953616,-0.2589110732078552,0.2647857367992401,0.3011719882488251,0.3808646500110626,-0.23715703189373017,-0.4138481020927429,0.16241204738616944,-0.4415915608406067,0.47789376974105837,0.02650706097483635,0.2686910033226013,-0.11303137987852097,-0.0012914706021547318,-0.14157409965991975,0.18727447092533112,-0.08151587843894959,0.05547244846820831,0.297763854265213,0.1499175727367401,0.20561037957668305,-0.01387513242661953,0.33164653182029726,-0.3263128101825714,0.6410033702850342,-0.22990313172340394,-0.46867215633392336,0.35097047686576846,0.22807732224464417,0.1445838063955307,0.15464642643928529,-0.447102814912796,0.06741490215063095,-0.11721399426460266,-0.294136106967926,0.17334437370300294,0.08146212249994278,-0.4511450529098511,-0.12076898664236069,-0.24833722412586213,0.3830069601535797,0.25409016013145449,0.0655205175280571,0.10426286607980728,0.015333506278693676,0.2600472867488861,-0.023158766329288484,0.4920218586921692,0.6840502023696899,-0.3018193542957306,0.28465086221694949,-0.24592933058738709,-0.0036900420673191549,-0.0037718224339187147,0.34404245018959048,0.0036184669006615879,-0.4103828966617584,0.12655219435691834,-0.5468679666519165,-0.19224967062473298,0.14087414741516114,-0.3064395785331726,0.07511422038078308,-0.3401640057563782,-0.19349949061870576,0.2543618381023407,-0.0464416965842247,0.022182684391736985,0.2705366909503937,0.17238286137580872,-0.05736943706870079,0.32563328742980959,0.08820197731256485,0.37257784605026247,0.0029998442623764278,0.24737970530986787,0.4862847328186035,0.15311238169670106,0.045850615948438647,0.1760459989309311,0.3582695722579956,0.17169278860092164,-0.17250525951385499,-0.2567605674266815,-0.09927386790513993,-0.18425695598125459,0.027243303135037423,-0.4906928837299347,-0.0037351464852690698,0.17035602033138276,-0.023831559345126153,0.03977648541331291,0.4696836471557617,0.430317759513855,-0.3168424367904663,0.18886877596378327,0.3673757314682007,0.34694018959999087,-0.3317053020000458,0.2449968010187149,0.4045650362968445,-0.31560003757476809,0.19002433121204377,-0.09181232005357743,-0.0025392172392457725,-0.03845367953181267,-0.0339086689054966,0.3385660946369171,0.3221918046474457,0.04891376942396164,0.21634343266487122,0.08570737391710282,0.4806686043739319,0.06244903802871704,0.02202567458152771,0.32863590121269228,-0.4593181610107422,0.29369258880615237,0.4523133635520935,0.07982790470123291,0.3514613211154938,0.36738336086273196,-0.3258913457393646,0.2557999789714813,0.376128613948822,-0.11081655323505402,0.000530750083271414,-0.3923521041870117,0.19444118440151215,-0.37595516443252566,0.05495226010680199,0.0036289046984165909,0.02854406274855137,-0.15578897297382356,0.2715455889701843,0.21205471456050874,0.1754535287618637,0.3362773358821869,-0.1796918660402298,0.28941816091537478,0.07236864417791367,0.15783369541168214,0.48935624957084658,-0.02588891051709652,-0.35499483346939089,0.12432384490966797,-0.2497594803571701,-0.17100825905799867,0.4463786780834198,0.05115034803748131,0.3819541037082672,0.14831289649009705,0.6175416707992554,-0.22488979995250703,0.43893882632255556,-0.46938061714172366,0.06720515340566635,0.12139129638671875,-0.1897744983434677,-0.6666430830955505,-0.0672202929854393,-0.08115264773368836,-0.015086944214999676,0.16255302727222444,0.0760226845741272,0.7359329462051392,-0.14716598391532899,0.11069270223379135,-0.10231024026870728,-0.29404759407043459,-0.06311647593975067,-0.2926397919654846,0.126336932182312,-0.2653341293334961,0.4560701847076416,-0.449969619512558,0.47943225502967837,-0.2269987016916275,-0.06946869939565659,0.3249196708202362,0.6252062320709229,0.303262323141098,0.06314419209957123,-0.05534466728568077,-0.11569090932607651,-0.0852063000202179,-0.2511362135410309,0.01937338151037693,-0.011708591133356095,0.0440644808113575,0.33807963132858279,0.05061602592468262,0.6367568969726563,0.08752121776342392,0.47649043798446658,0.4839688539505005,-0.31540051102638247,-0.1473274976015091,0.09050814807415009,0.03510134667158127,-0.15028798580169679,0.050790805369615558,-0.4834924340248108,-0.13618795573711396,-0.16149769723415376,0.026270415633916856,0.19517815113067628,0.24907201528549195,-0.06735061854124069,0.07923931628465653,0.4031531810760498,0.5190452337265015,0.0852617472410202,-0.3722611963748932,0.24631594121456147,-0.2337052971124649,0.3178377151489258,-0.06445177644491196,0.2868734896183014,0.0917813628911972,0.5703570246696472,-0.2819898724555969,0.000502538459841162,0.10891583561897278,0.18276335299015046,0.647712767124176,0.2589101791381836,-0.4230881631374359,-0.46063438057899477,0.11111073195934296,0.2641022801399231,0.10410422086715698,-0.327654629945755,-0.3683859705924988,0.40611642599105837,-0.19332663714885713,-0.3035377264022827,0.2829172611236572,-0.1477840393781662,-0.17658405005931855,-0.14842280745506288,0.1758321076631546,-0.06717060506343842,0.4111853241920471,0.3392290472984314,0.6428984999656677,-0.0579400397837162,-0.06686551868915558,0.4940117597579956,0.27854299545288088,0.12689809501171113,0.0916891023516655,0.22240343689918519,0.08302661776542664,0.3433510959148407,-0.16198720037937165,-0.48157238960266116,-0.4771845042705536,-0.00537060247734189,-0.12036295980215073,-0.3195149600505829,0.2721405327320099,0.21697382628917695,0.32525789737701418,-0.5262643694877625,-0.31619012355804446,-0.33432576060295107,-0.05446571484208107,-0.1288284957408905,0.48207205533981326,0.28044572472572329,0.7998901605606079,0.04995452240109444,0.471964955329895,-0.014174999669194222,-0.0815158262848854,-0.28295865654945376,0.22040081024169923,-0.18143022060394288,-0.06420986354351044,-0.34344786405563357,-0.30037957429885867,-0.3157908320426941,-0.1527807116508484,0.27143922448158266,0.4729304015636444,0.2497006505727768,0.2844122052192688,0.19169625639915467,-0.015775304287672044,-0.2825871407985687,-0.3268544673919678,0.0002753589360509068,-0.1761770248413086,0.521692156791687,0.0932462215423584,0.002402447396889329,0.18506664037704469,0.24734222888946534,0.1521671563386917,0.23856350779533387,-0.17674808204174043,-0.22548384964466096,-0.10932612419128418,-0.0963238775730133,0.1708029955625534,0.7053744792938232,-0.17498764395713807,0.3186468183994293,0.1611793339252472,-0.02149862051010132,-0.08767249435186386,-0.06932101398706436,-0.3933926820755005,0.20896486937999726,-0.2139224410057068,0.029891671612858774,-0.4695335924625397,0.4393772780895233,-0.17104728519916535,0.38444074988365176,0.1658993512392044,-0.2539311349391937,-0.16720445454120637,0.055758923292160037,-0.47177398204803469,0.02712351456284523,0.11913909763097763,-0.10112801939249039,0.09952278435230255,-0.35159891843795779,0.2085796743631363,0.3033796548843384,0.2710353434085846,0.7260235548019409,0.17201346158981324,0.2112148404121399,0.07607020437717438,-0.19587485492229463,-0.23694433271884919,0.27260729670524599,-0.4696178138256073,0.1470891237258911,0.06474967300891876,0.19151771068572999,0.060166649520397189,0.13858318328857423,-0.22654995322227479,0.4136614501476288,0.02991248480975628,0.18229873478412629,-0.4755694568157196,-0.08813406527042389,0.2781740427017212,0.5300843715667725,0.08658505231142044,0.5409696698188782,0.27814340591430666,0.35315263271331789,0.09055683761835098,0.2582281529903412,0.0872369110584259,0.4019721448421478,0.5308573246002197,0.7050033807754517,0.6652530431747437,0.1362430900335312,-0.5433332920074463,0.16791081428527833,0.02543405070900917,-0.20864753425121308,0.17490050196647645,-0.35792189836502077,0.08405392616987229,-0.0594455786049366,0.0759233757853508,-0.11676125228404999,-0.288357138633728,-0.44759342074394228,-0.6347039341926575,-0.45664119720458987,-0.7429162859916687,-0.3999424874782562,-0.14457862079143525,-0.1739778071641922,-0.4267007112503052,-0.1532764881849289,-0.1290368139743805,0.3564939498901367,0.9748470187187195,0.5571934580802918,0.8438569903373718,0.32100847363471987,0.41238072514533999,0.5970937013626099,0.27172791957855227,-0.16994066536426545,0.503642201423645,-0.15100054442882539,-0.2843286395072937,0.18463462591171266,0.402432382106781,0.5339124798774719,0.1775396466255188,0.04057185351848602,-0.16698339581489564,-0.4442683458328247,-0.4186965227127075,-0.4497881233692169,-0.6517077088356018,-1.2413955926895142,-0.804534375667572,-0.7706161737442017,-0.8152914047241211,-0.31077519059181216,0.3472960889339447,0.6229689121246338,-0.0797826424241066,0.18820074200630189,-0.10722234100103378,0.548485279083252,0.48714613914489748,0.028235655277967454,-0.09447367489337921,0.08309464901685715,-0.3915715515613556,-0.2623927593231201,-0.17297054827213288,-0.10862160474061966,-0.32890453934669497,0.08875074982643128,-0.06412266939878464,0.15722112357616425,-0.2943996787071228,-0.13241900503635407,0.03752196952700615,-0.5740035176277161,-0.4242139160633087,-0.65352863073349,-0.8943565487861633,-0.6553196310997009,-0.0995388776063919,-0.471172034740448,0.06314976513385773,0.1801486760377884,0.1562899947166443,0.36941394209861758,0.1745980679988861,0.30283844470977785,-0.05958550423383713,-0.2634553611278534,0.32220765948295596,-0.27735117077827456,-0.48783236742019656,-0.28955936431884768,-0.008938855491578579,0.16303640604019166,-0.38789334893226626,0.039103053510189059,0.7947595119476318,0.4225185215473175,0.2989250719547272,0.0017248205840587617,-0.36676737666130068,-0.05033835768699646,-0.1795206069946289,0.2080724984407425,-0.29530149698257449,-0.4860537350177765,-0.18994782865047456,-0.08421553671360016,0.0765802413225174,-0.4213408827781677,-0.2392590194940567,-0.18490637838840486,-0.11590991169214249,0.49875110387802126,0.11969885230064392,0.4179866313934326,-0.1422538161277771,-0.15602624416351319,0.42595937848091128,-0.10326913744211197,-0.3896804451942444,0.0735865980386734,-0.291933536529541,-0.008367239497601986,-0.2148226797580719,0.06626461446285248,0.3726336359977722,0.19381926953792573,0.6127535700798035,0.19630835950374604,0.2740822434425354,-0.026607651263475419,-0.2801841199398041,0.4913022518157959,-0.36674976348876955,-0.8048163056373596,-0.35506942868232729,-0.007387431338429451,0.34240949153900149,-0.5184396505355835,-0.09469252824783325,-0.08402687311172486,0.33032846450805666,-0.539409339427948,0.10505277663469315,0.42223450541496279,-0.319053053855896,0.11366443336009979,0.33047086000442507,0.13274680078029633,0.21246269345283509,0.15534399449825288,0.13111039996147157,0.48180902004241946,-0.2609383761882782,0.4501725137233734,-0.07872840017080307,-0.45067641139030459,-0.10136038810014725,0.041339535266160968,-0.1753113716840744,0.22678111493587495,-0.29267922043800356,0.17955000698566438,0.0703483447432518,0.12459368258714676,-0.08829960227012634,-0.5477460026741028,0.4312998652458191,-0.11914633959531784,-0.20763491094112397,-0.32764890789985659,-0.3475385010242462,-0.04653256759047508,0.42487674951553347,-0.09420036524534226,-0.16717545688152314,-0.04071037098765373,0.26576974987983706,-0.04431449621915817,-0.41075727343559267,-0.406526118516922,0.034492094069719318,0.0281661506742239,0.07572578638792038,-0.08375029265880585,0.04010971263051033,0.4501516819000244,-0.3641532361507416,0.1249554306268692,0.0949229970574379,-0.1279948353767395,-0.2494516223669052,0.09902358055114746,-0.3630673885345459,-0.05947921797633171,-0.42091286182403567,-0.5869371294975281,0.2779483199119568,0.20571103692054749,-0.3974124491214752,0.09008962661027909,0.3913738429546356,-0.049390554428100589,-0.2847439646720886,-0.018698766827583314,0.08190874755382538,0.5693473815917969,0.4058404564857483,0.3008836507797241,-0.3235957622528076,0.2752726078033447,-0.39350461959838869,0.36925241351127627,0.23865966498851777,0.36255475878715517,0.11263543367385864,-0.11536512523889542,0.35465341806411745,0.24142171442508698,0.3571062684059143,-0.10916437953710556,0.2716098129749298,-0.2888985872268677,0.2838134765625,-0.16980789601802827,0.15832267701625825,-0.25097614526748659,-0.2117207646369934,-0.4011712670326233,0.2312108427286148,-0.21090130507946015,0.37972313165664675,-0.19210128486156465,-0.0218136478215456,0.128464937210083,0.19388851523399354,0.381418913602829,0.3981705904006958,0.8274338841438294,0.12521052360534669,0.08593796193599701,-0.11109345406293869,0.348484069108963,-0.21929575502872468,0.6737987399101257,-0.07281117886304856,0.2966994047164917,0.004180173855274916,0.2673296630382538,-0.3384748101234436,-0.3215457499027252,0.0542496033012867,-0.36140966415405276,-0.4315410256385803,0.14379651844501496,0.23085403442382813,-0.031062571331858636,0.1483670473098755,-0.31484586000442507,-0.3822409510612488,0.044543784111738208,0.35404476523399355,0.12064927071332932,0.09068228304386139,-0.10837330669164658,0.41566988825798037,0.23048946261405946,-0.04733782634139061,0.2695733308792114,0.4818270802497864,0.24015069007873536,-0.1699085682630539,0.2998048961162567,-0.28078725934028628,0.17506535351276399,-0.10862080007791519,-0.18738551437854768,-0.010069307871162892,-0.18864674866199494,-0.13852714002132417,0.11842206865549088,0.20857806503772736,0.1831289529800415,-0.15769462287425996,-0.0018418566323816777,0.32265979051589968,-0.4327467083930969,0.12059590220451355,-0.2777089476585388,-0.2597138285636902,-0.3325909674167633,-0.06834308803081513,0.44994813203811648,0.2809273600578308,-0.2578861713409424,0.4736970365047455,0.06938507407903671,-0.398138165473938,0.21266542375087739,0.21390166878700257,-0.3447711169719696,-0.6203778982162476,-0.10371141135692597,-0.4218241572380066,0.352044939994812,0.05738323554396629,-0.10642027109861374,0.31512606143951418,0.24423754215240479,0.457550585269928,-0.14882858097553254,0.19306103885173798,0.15557074546813966,0.07366332411766052,0.2819417119026184,0.3442468047142029,-0.22596435248851777,0.302979052066803,0.44827693700790408,0.2183891385793686,-0.2966398298740387,0.13487988710403443,-0.15697595477104188,0.3241462707519531,0.10263179987668991,-0.209344744682312,-0.19323518872261048,-0.34734785556793215,0.4623403251171112,-0.2879071831703186,-0.18712793290615083,-0.11329329013824463,0.022924745455384256,0.007626068312674761,0.4825997054576874,0.48369520902633669,0.44150063395500185,-0.08679917454719544,-0.12108205258846283,-0.3352237343788147,-0.2822405695915222,-0.33794134855270388,0.05871669575572014,-0.21043901145458222,0.0464065819978714,-0.16895870864391328,0.48064127564430239,0.3198743164539337,0.3228706419467926,-0.3604280650615692,0.2928711473941803,-0.2653530538082123,-0.3374938666820526,-0.11884627491235733,-0.03796176612377167,0.31181764602661135,0.40825608372688296,-0.09784648567438126,-0.07825086265802384,-0.41883179545402529,-0.20088045299053193,0.05295927822589874,0.2736414968967438,-0.3388659656047821,-0.27839967608451846,0.28569796681404116,-0.12887941300868989,0.11482968181371689,-0.14735929667949677,0.48215439915657046,-0.36733612418174746,0.1238488033413887,0.09250082820653916,0.1254589557647705,0.06560757011175156,0.01728225126862526,0.35564175248146059,0.18394491076469422,0.20161320269107819,-0.018313536420464517,-0.24758976697921754,-0.20846916735172273,-0.3500418961048126,-0.023418067023158075,-0.3639485836029053,0.3954375684261322,-0.38485103845596316,0.34827929735183718,-0.19955334067344666,-0.3862345814704895,0.06299494951963425,-0.09779715538024903,0.13445770740509034,-0.3765372335910797,-0.25056564807891848,-0.22077052295207978,0.282368928194046,-0.37829217314720156,0.27477481961250307,0.18039202690124513,-0.32478711009025576,-0.11891157925128937,0.22908584773540498,0.1829882264137268,-0.32245540618896487,0.24132688343524934,0.376973956823349,-0.46705862879753115,-0.03695704787969589,0.34918197989463808,0.18856050074100495,-0.18543432652950288,-0.22607454657554627,0.5012109875679016,0.21546593308448792,-0.0036568916402757169,0.36406615376472475,-0.056740596890449527,0.1756492555141449,-0.1918136328458786,-0.12605401873588563,0.3401830792427063,0.09571914374828339,0.04097163677215576,-0.154826357960701,-0.0010889368131756783,-0.3895634114742279,0.13836216926574708,0.12297280132770539,0.2668600380420685,-0.0018126083305105568,-0.19388194382190705,0.31522107124328616,-0.029269473627209665,0.34675997495651247,-0.1200328916311264,0.06440277397632599,0.3789004385471344,0.3593088686466217,-0.15143105387687684,-0.3286333680152893,-0.1274859756231308,-0.08344440162181854,-0.39630085229873659,-0.0071731507778167728,-0.3179328739643097,0.2903752326965332,0.3374984562397003,0.410791277885437,0.22014844417572022,0.49577823281288149,0.3115518391132355,-0.03907729312777519,0.349659264087677,-0.13408009707927705,-0.031675852835178378,0.02368367277085781,0.035030681639909747,-0.05133204907178879,0.44396477937698367,-0.2361733764410019,0.3628503084182739,0.41816070675849917,0.016945647075772287,-0.19321538507938386,0.3465881049633026,-0.282970130443573,0.4468129575252533,0.5309349298477173,0.21163588762283326,0.4471578299999237,0.13005034625530244,-0.056029655039310458,0.2916828691959381,-0.045767493546009067,-0.05508830025792122,0.1217697262763977,-0.1259324699640274,0.4068620502948761,0.4678695499897003,-0.3844219148159027,-0.14236603677272798,0.4503183364868164,0.17863774299621583,-0.3154439628124237,0.49447542428970339,0.4607159495353699,0.00212438334710896,-0.2161584049463272,-0.11141073703765869,-0.31710708141326907,0.3454682230949402,-0.2231658697128296,-0.02529795840382576,0.059388209134340289,0.465663880109787,0.10201845318078995,0.2932383716106415,0.44882863759994509,0.2999894320964813,-0.05721079930663109,0.3515881896018982,-0.1111426055431366,-0.04635560140013695,0.038041871041059497,-0.2447606474161148,-0.17557589709758759,-0.330911785364151,0.34263157844543459,-0.001116920611821115,0.4705631136894226,-0.4761250913143158,-0.18340229988098145,-0.39344069361686709,-0.03504626825451851,0.2962673604488373,-0.06800413131713867,0.08913064002990723,0.07590936124324799,0.1661195456981659,0.3667871654033661,-0.14871934056282044,0.47567158937454226,0.17594732344150544,0.49527508020401,-0.035090312361717227,-0.269491046667099,0.07985673099756241,-0.07651001960039139,-0.25783902406692507,-0.3402184545993805,-0.03303129971027374,0.261418879032135,-0.21009860932826997,-0.13086946308612824,0.5387544631958008,0.3093021810054779,0.16752123832702638,-0.3484056293964386,0.36651432514190676,-0.27623844146728518,0.328864187002182,-0.1499621421098709,0.08619710803031922,-0.028248758986592294,-0.026793237775564195,0.06766457110643387,0.4083910584449768,0.03229408338665962,0.276978075504303,-0.04055844992399216,-0.5134875774383545,-0.26465150713920596,0.09711197018623352,0.0946919173002243,-0.10649625957012177,0.05824057757854462,-0.3091450333595276,-0.3528425395488739,0.13272246718406678,-0.6131551265716553,-0.050793781876564029,0.20561064779758454,0.257321298122406,0.2757663428783417,0.404938280582428,0.3677520453929901,-0.3206309378147125,0.19208326935768128,0.0035288254730403425,0.13495692610740663,-0.39369121193885805,0.3104493021965027,-0.004851279780268669,0.2557443082332611,-0.15451905131340028,-0.019213134422898294,0.2073507457971573,-0.20343279838562013,0.16224972903728486,0.02507471852004528,-0.111070416867733,0.14455914497375489,-0.5810703635215759,-0.06547804921865463,-0.45944756269454958,0.06149999424815178,-0.13521075248718263,-0.06257279217243195,0.2275802195072174,0.1871960163116455,0.2942618727684021,0.5636290907859802,0.16435691714286805,-0.059044159948825839,-0.0705258697271347,-0.10899572819471359,0.2854006588459015,0.14505435526371003,0.2850281596183777,-0.11451762914657593,0.15921516716480256,0.12743975222110749,0.353767991065979,0.015605351887643338,-0.24210712313652039,0.10216719657182694,-0.5998027920722961,0.3080954849720001,0.4134688079357147,0.3634518086910248,-0.18240578472614289,0.05502034351229668,-0.4632933735847473,0.085055872797966,-0.4662799835205078,0.2260158658027649,-0.021597178652882577,0.2733696699142456,0.7105616927146912,0.6052584052085877,0.3285259008407593,0.34231582283973696,0.039700690656900409,0.14333422482013703,-0.24954400956630708,0.3249060809612274,0.2256453037261963,0.3333560526371002,0.08905401825904846,0.628704309463501,-0.25414660573005679,0.10053171217441559,0.3021877408027649,-0.1318901926279068,0.05048458278179169,0.033208053559064868,1.1838079690933228,0.31748446822166445,0.010552466847002507,-0.30065539479255679,-0.30595284700393679,-0.09687289595603943,-0.31671491265296938,-0.435638427734375,-0.2327829748392105,0.30611249804496767,0.48372143507003786,0.06237661838531494,-0.31234049797058108,-0.2435588389635086,-0.41189390420913699,-0.19865059852600099,0.2365884929895401,0.277591347694397,-0.07906875759363175,0.493686318397522,-0.17143118381500245,-0.2771673798561096,-0.09298641234636307,0.22611680626869203,0.36567816138267519,0.1989365816116333,0.6240087747573853,-0.025567881762981416,0.08643535524606705,0.0017147761536762119,-0.2100830376148224,-0.462964802980423,-0.25749123096466067,-0.4961228668689728,-0.654930830001831,0.0015236374456435443,-0.6311790347099304,0.3492068350315094,0.159910649061203,0.46084731817245486,0.44807878136634829,0.2159237563610077,0.21659456193447114,0.15737852454185487,-0.41143307089805605,-0.04686972498893738,-0.4322628378868103,0.013565091416239739,-0.16651958227157594,0.4882553815841675,0.007292402442544699,0.4456106424331665,0.3112267255783081,0.17987346649169923,0.304050475358963,0.19323185086250306,0.14479590952396394,-0.14186866581439973,-0.07703506946563721,-0.21618513762950898,-0.5106192231178284,0.24367478489875794,-0.21534882485866548,-0.054014913737773898,-0.024419119581580163,0.20461399853229524,-0.22074951231479646,-0.13502562046051026,-0.33352264761924746,0.18983790278434754,0.06834389269351959,0.3467862904071808,-0.43333712220191958,-0.38400188088417055,-0.15000496804714204,0.4140327572822571,0.360302209854126,-0.04490460082888603,0.11263193935155869,0.5971408486366272,0.04949306696653366,0.01910083368420601,0.23870670795440675,0.07826438546180725,-0.11375536024570465,0.3405722379684448,-0.16005180776119233,0.011553322896361351,-0.21826136112213136,-0.14582251012325288,0.32803550362586977,-0.4589003324508667,0.08003872632980347,0.18414847552776338,-0.5183556079864502,-0.5999720096588135,-0.5430482625961304,0.1971861571073532,0.16119423508644105,0.2787901759147644,-0.28793665766716006,-0.2328619658946991,0.15772467851638795,-0.19668510556221009,-0.041175663471221927,0.2608262002468109,-0.389123797416687,-0.1554962396621704,-0.04127254709601402,-0.10558763146400452,-0.26224687695503237,-0.09928609430789948,0.2099682241678238,-0.2476613074541092,-0.2141857147216797,-0.009374124929308892,-0.24226193130016328,0.0038102208636701109,-0.3417656421661377,-0.2188355028629303,-0.17445196211338044,-0.460206001996994,-0.3536317050457001,-0.5576270222663879,-0.3382455110549927,0.15166868269443513,0.36085987091064455,-0.09568273276090622,0.0684952586889267,0.06381078064441681,-0.5591081976890564,-0.6090231537818909,0.032369669526815417,-0.16962923109531403,-0.09267432242631912,-0.02194967307150364,0.20255492627620698,-0.11252814531326294,0.5358096361160278,0.2218717485666275,0.9388973116874695,0.36377403140068056,0.4275719225406647,-0.32114049792289736,0.04803157597780228,-0.2227409929037094,-0.10043871402740479,-0.4773778021335602,0.5484554767608643,0.14268642663955689,-0.13473573327064515,0.20455360412597657,0.07740474492311478,-0.4766058027744293,-0.07552031427621842,-0.450104296207428,0.210269495844841,-0.16562913358211518,-0.27203527092933657,-0.5381895899772644,-0.38938722014427187,-0.13208666443824769,-0.5508682131767273,-0.039527326822280887,-0.1739543378353119,0.5327237844467163,0.24961809813976289,0.6079902052879334,0.1425960212945938,0.2053421139717102,0.22614474594593049,-0.38535603880882265,-0.29608777165412905,0.013644307851791382,-0.24672643840312959,-0.2196751832962036,0.7101566195487976,0.08434108644723892,0.47952601313591006,0.1811729073524475,-0.461593896150589,0.4669281244277954,0.17737150192260743,-0.47456106543540957,-0.1702718734741211,-0.427011638879776,-0.018495304509997369,-0.4842357039451599,-0.5770694017410278,-0.7888202667236328,-0.40712931752204897,0.06945619732141495,0.04087718576192856,-0.3150885999202728,0.38876038789749148,0.348162442445755,0.26859205961227419,-0.6466761827468872,-0.27655714750289919,-0.3596184551715851,0.04161282256245613,-0.19784638285636903,0.10406319051980972,-0.3559113144874573,0.1334080845117569,0.2974841296672821,0.19548653066158296,0.2587023973464966,-0.23420065641403199,-0.22031725943088532,-0.18731896579265595,0.20632430911064149,-0.22417514026165009,0.12956708669662476,-0.13134883344173432,-0.2813028395175934,0.09852048754692078,-0.427983820438385,0.034443583339452746,-0.16890685260295869,-0.48159921169281008,0.19937314093112946,-0.03220559284090996,0.16087278723716737,-0.38774850964546206,-0.16375869512557984,-0.27869662642478945,-0.7006344795227051,-0.4178500175476074,0.0427580252289772,-0.16338667273521424,0.3895997405052185,0.21724437177181245,0.29896408319473269,0.043566830456256869,-0.13970400393009187,-0.07637739181518555,-0.15565159916877747,-0.40056440234184267,0.2957650423049927,0.1424127072095871,0.34835493564605715,0.07702812552452088,-0.00885081384330988,-0.04073747619986534,0.15902180969715119,-0.3607887327671051,0.11078343540430069,-0.0025728095788508655,-0.10946191847324372,-0.13411371409893037,0.3982631266117096,-0.15052326023578645,0.48498693108558657,0.021863406524062158,0.4298539161682129,0.2414119839668274,-0.0484900027513504,0.16903598606586457,0.05718856304883957,0.723564624786377,0.16915151476860047,-0.29431402683258059,-0.24284131824970246,0.2466021180152893,-0.09404340386390686,0.34198465943336489,0.14727436006069184,-0.17471206188201905,-0.16255420446395875,0.07175750285387039,-0.1682998389005661,0.2098492980003357,0.6106465458869934,0.3316919207572937,0.6266651153564453,0.283822625875473,-0.10069145262241364,0.447931706905365,-0.3213362693786621,0.5805298089981079,-0.08899561315774918,0.5483392477035523,-0.14640392363071443,0.518709659576416,0.05323543772101402,0.303610235452652,0.03826174885034561,0.2692529857158661,0.13281801342964173,0.1552293449640274,0.1135082095861435,0.3061882257461548,-0.46558159589767458,-0.027655253186821939,-0.24276451766490937,0.028365543112158777,-0.04091045260429382,0.22238494455814362,0.09248426556587219,-0.042616549879312518,0.09613767266273499,-0.13865455985069276,0.06106961891055107,-0.1194823607802391,0.19170184433460236,0.06745506078004837,0.03178569674491882,0.4647490978240967,0.16135522723197938,0.16090019047260285,0.30595648288726809,0.6183905005455017,0.4670451879501343,0.04628291726112366,0.22466285526752473,0.6379034519195557,-0.06471015512943268,0.3106745779514313,-0.18399132788181306,-0.21581792831420899,0.21048839390277863,0.1526930332183838,-0.07903511077165604,0.4078510105609894,0.37204229831695559,0.36403658986091616,-0.27510663866996767,-0.195539653301239,-0.08742425590753555,0.062329262495040897,0.04254112020134926,0.22562094032764436,0.18221773207187653,-0.14340440928936006,0.3137468993663788,0.15289518237113954,0.08015347272157669,0.3317159116268158,0.4119051694869995,0.42351675033569338,0.42464450001716616,0.5355858206748962,0.40006014704704287,0.3247792720794678,-0.15918655693531037,-0.4051854908466339,0.250219464302063,0.4733749330043793,-0.15230561792850495,0.3354547321796417,0.19663619995117188,-0.12679266929626466,-0.3148537576198578,0.5296676754951477,0.1923760175704956,-0.15274184942245484,0.027471007779240609,0.22856836020946504,0.29638972878456118,-0.12825742363929749,0.26675325632095339,0.19148583710193635,0.3880685567855835,0.19736656546592713,0.31779521703720095,0.8111581206321716,0.36705875396728518,-0.02490481734275818,0.682201087474823,0.46001991629600527,0.018321234732866288,-0.3465135097503662,0.4299979507923126,0.07860227674245835,-0.3981667459011078,-0.3021269142627716,-0.272872656583786,-0.4929538667201996,-0.34808942675590517,-0.23058860003948213,-0.17600105702877046,-0.2839813530445099,0.09840819239616394,-0.038983944803476337,0.06835437566041947,0.3017753064632416,0.2481614202260971,0.3878916800022125,0.07288433611392975,0.20817652344703675,0.11937103420495987,0.3991003632545471,0.17204684019088746,0.09686603397130966,0.20382225513458253,0.214975968003273,0.09194814413785935,0.1335994005203247,0.05853746831417084,-0.22110047936439515,-0.34218791127204897,-0.2994590103626251,0.3460446894168854,0.2211073786020279,0.3558885157108307,-0.46802398562431338,0.14135313034057618,0.09056683629751206,0.17706221342086793,0.32545387744903567,-0.3538045883178711,0.0769161507487297,0.2803195118904114,-0.19841623306274415,0.22437416017055512,0.4571760594844818,0.21823462843894959,-0.10509076714515686,-0.2996402680873871,0.18401755392551423,-0.1538727730512619,-0.5485993027687073,0.3272534906864166,-0.6004551649093628,-0.3565739095211029,0.2090577334165573,-0.13885782659053803,0.0064726704731583599,-0.3760005235671997,-0.11966827511787415,0.1701524406671524,0.34599560499191286,0.39590850472450259,-0.29096361994743349,-0.08109436184167862,0.4111924469470978,-0.23954060673713685,-0.3845183551311493,-0.34240543842315676,-0.25244513154029848,-0.46803754568099978,-0.07371354103088379,-0.3145860731601715,-0.5287001132965088,-0.21040865778923036,-0.53952556848526,-0.1762087643146515,-0.5661565065383911,-0.5096904039382935,-0.26459309458732607,-0.12691284716129304,-0.1903894692659378,-0.3796851634979248,-0.227311372756958,0.02270892634987831,0.35787901282310488,0.16877958178520204,0.49221566319465639,0.4216592609882355,0.029559006914496423,0.13007545471191407,0.08812405914068222,-0.14619962871074677,-0.2620335519313812,-0.10009143501520157,0.41678231954574587,0.21758349239826203,0.3177408277988434,0.35339662432670596,0.34444764256477358,-0.38083967566490176,0.19438867270946504,0.18978449702262879,0.14101845026016236,0.37817633152008059,0.28200045228004458,-0.3904692232608795,0.17161011695861817,0.12072264403104782,-0.19766712188720704,0.33475059270858767,0.31582579016685488,-0.36539387702941897,-0.20431578159332276,-0.13638918101787568,-0.22181718051433564,0.3655600845813751,-0.1731124371290207,-0.336885541677475,0.023055830970406534,-0.07245361059904099,0.47130560874938967,0.03462382033467293,-0.05753330513834953,0.10198081284761429,0.209503635764122,-0.2862471342086792,-0.4010474681854248,-0.12550581991672517,-0.40262365341186526,0.3289182186126709,-0.40750426054000857,-0.038845788687467578,-0.34779560565948489,0.04569830745458603,-0.4015491008758545,-0.15841561555862428,-0.06605076044797898,0.06488049775362015,0.35462069511413576,0.08059204369783402,-0.3050762414932251,-0.3151836395263672,-0.29734766483306887,0.2799879312515259,0.1991790384054184,0.09397280961275101,-0.24594491720199586,-0.2419772744178772,0.14125297963619233,-0.41908514499664309,-0.22895295917987824,-0.05469142273068428,-0.3865189552307129,0.1667100340127945,-0.20641852915287019,-0.4134277403354645,0.3297155201435089,0.19885212182998658,0.12434948980808258,-0.21731896698474885,-0.058128707110881808,-0.04401703178882599,-0.28754448890686037,0.06170450150966644,0.08232589811086655,0.17930826544761659,0.36230534315109255,-0.1709398478269577,0.11991658806800842,0.09716704487800598,0.058070261031389239,0.43945181369781496,0.13122163712978364,-0.13870316743850709,0.43052852153778078,-0.18583303689956666,0.07238899916410446,0.08030368387699127,0.010070388205349446,-0.3668411672115326,0.2694937288761139,-0.4821527600288391,-0.31180331110954287,0.4251929223537445,-0.04152929410338402,-0.3340257406234741,-0.45741593837738039,-0.04357000067830086,-0.0974423885345459,-0.1545882523059845,-0.4328450560569763,0.38021087646484377,-0.1512152999639511,0.5111832022666931,0.5780091881752014,0.01002355758100748,-0.1212240681052208,0.07655315101146698,-0.26691579818725588,-0.09034410864114762,-0.060765188187360767,-0.29100024700164797,0.07302416115999222,0.271673321723938,0.14073967933654786,0.1067880317568779,-0.34479498863220217,0.3211298882961273,0.09088572859764099,0.22830450534820558,0.02369740605354309,0.035436149686574939,-0.45565447211265566,0.20119218528270722,-0.41765296459198,-0.29766955971717837,-0.32736924290657046,-0.30015280842781069,0.23752544820308686,0.4339366853237152,0.3644735515117645,0.16940298676490785,0.5881948471069336,0.45206281542778017,0.20887455344200135,0.04645857587456703,0.16423888504505158,-0.48490193486213686,0.1143854558467865,-0.19442039728164674,-0.23667937517166139,-0.2703721523284912,0.31331631541252139,0.2990449368953705,-0.019072728231549264,0.4550010561943054,0.3726840615272522,-0.02069716714322567,-0.2730944752693176,-0.37281808257102969,-0.35908272862434389,-0.3359501361846924,-0.25523120164871218,-0.16876044869422913,-0.052515823394060138,-0.3533742129802704,0.38870197534561159,-0.06256943941116333,-0.34970030188560488,0.41556528210639956,-0.1488916277885437,-0.3655843734741211,0.7836129665374756,-0.10383858531713486,0.4172331690788269,-0.2023136466741562,-0.1462804675102234,0.3809564411640167,0.37984347343444826,-0.2300671935081482,-0.10333885252475739,0.31391000747680666,0.18775364756584168,0.3004148602485657,-0.47343283891677859,-0.471809983253479,-0.026951655745506288,-0.11483126878738404,-0.12235059589147568,0.13377125561237336,0.11683111637830734,-0.37144172191619875,0.0723046213388443,-0.09914598613977432,-0.18422645330429078,0.4755329489707947,-0.03884391859173775,0.1953851282596588,0.2563804090023041,0.731779932975769,0.1111292764544487,0.6255291104316711,-0.17608682811260224,-0.4502248167991638,-0.011193151585757733,-0.36890164017677309,0.022236982360482217,-0.34637245535850527,-0.455025315284729,0.34541675448417666,0.2767447233200073,-0.5312593579292297,-0.5003769993782044,-0.39292770624160769,-0.5621466040611267,-0.5573729276657105,-0.23764070868492127,-0.18151997029781342,-0.19335441291332246,-0.08412182331085205,-0.39127054810523989,0.043683599680662158,0.30330532789230349,0.025450991466641427,-0.43932944536209109,-0.15976807475090028,0.33952558040618899,0.2395516037940979,-0.14977772533893586,0.22528842091560365,-0.3070726990699768,0.2389635443687439,-0.40715688467025759,0.04111224040389061,-0.1906110644340515,-0.08142542839050293,-0.012718858197331429,-0.3112730383872986,-0.6906804442405701,0.1209668442606926,-0.13080084323883058,0.015186645090579987,0.0659676194190979,-0.25604215264320376,-0.3831411600112915,-0.6288068294525147,-0.4574292302131653,-0.540483295917511,0.1735730618238449,-0.14191597700119019,-0.4307606518268585,0.003708678763359785,0.22209182381629945,-0.04610849544405937,0.23146574199199677,-0.02918381430208683,0.016647575423121454,0.300232470035553,-0.189484104514122,0.3369496762752533,0.274967759847641,0.2170819789171219,-0.15325221419334413,-0.2371637523174286,-0.4882372319698334,0.2750558853149414,-0.5915235280990601,-0.18177816271781922,-0.11762390285730362,-0.2437499314546585,-0.28678783774375918,-0.11509019136428833,0.16996869444847108,0.19732211530208589,-0.3492547869682312,0.03546507656574249,-0.21480047702789308,-0.44975337386131289,0.23003439605236054,-0.21269480884075166,-0.15564946830272675,-0.1852673888206482,-0.01807551644742489,-0.15414409339427949,-0.1423894166946411,0.14018258452415467,0.2756045460700989,-0.2737012207508087,-0.21223948895931245,-0.1837851107120514,-0.05022754147648811,0.47617587447166445,0.4479191303253174,0.11020974069833756,-0.7059874534606934,0.014866412617266178,-0.6211584210395813,-0.1807718127965927,-0.29226452112197878,0.30332764983177187,0.2132067084312439,0.19999408721923829,-0.008616962470114231,-0.0746857225894928,-0.9890815019607544,-0.554121732711792,-0.6153436899185181,-0.3657044470310211,-0.3135548233985901,0.13373292982578278,-0.16497869789600373,0.01014576107263565,-0.06951238214969635,0.3624238669872284,-0.424175500869751,-0.6482064723968506,-0.25637388229370119,0.14055940508842469,0.4876342713832855,0.06406141072511673,-0.30010271072387698,0.35458284616470339,-0.12345096468925476,-0.4067860543727875,0.2723820209503174,0.31056204438209536,0.1595805138349533,0.475086510181427,0.30139848589897158,0.7230943441390991,0.29128655791282656,0.16022995114326478,-0.06274619698524475,-0.16667678952217103,-0.14981774985790254,-0.6295462846755981,-0.22580306231975556,-0.18875697255134583,-0.44452494382858279,0.15410415828227998,0.028525378555059434,0.2766363024711609,-0.567319929599762,-0.5333801507949829,-0.24816404283046723,-0.023400938138365747,-0.35583704710006716,-0.10611890256404877,-0.44214385747909548,0.3976839780807495,0.0010062902001664043,0.05432445555925369,0.05914975702762604,0.7796601057052612,-0.01639072597026825,0.6809526681900024,0.25465187430381777,0.21859696507453919,0.6490572690963745,0.6992947459220886,0.7212654948234558,0.06719166040420532,-0.19441922008991242,-0.1361875683069229,-0.22157180309295655,-0.0074457027949392799,0.23469284176826478,0.2432168871164322,0.6353331804275513,0.11250754445791245,-0.11566087603569031,-0.15302437543869019,-0.5361430048942566,0.2637045085430145,0.010588143020868302,0.04714775085449219,-0.4248131513595581,-0.32682573795318606,-0.36240094900131228,-0.14707167446613313,0.2146569937467575,0.6792652606964111,0.4387136995792389,-0.06859038025140763,0.2819784879684448,0.2331431806087494,0.3446293771266937,0.4188874661922455,0.40100544691085818,0.2898419499397278,0.21955329179763795,0.43469542264938357,0.16419357061386109,0.33301064372062685,0.37924766540527346,0.3216820955276489,0.6999676823616028,0.877479612827301,-0.35343173146247866,-0.5113599896430969,-0.26024627685546877,0.050229817628860477,0.046350423246622089,-0.12031944841146469,-0.41859281063079836,-0.023778395727276803,0.43151599168777468,0.15763640403747559,0.248011976480484,0.21564964950084687,-0.09505359828472138,0.12054888159036637,-0.24089568853378297,0.25272420048713686,-0.043921228498220447,0.480668842792511,0.27768439054489138,0.6729730367660523,0.3019028604030609,-0.05055591091513634,0.3492526113986969,0.6047395467758179,0.10781361162662506,0.9242507815361023,0.3466048836708069,-0.08134601265192032,0.08052598685026169,0.24765720963478089,0.1356918066740036,0.5461891889572144,-0.4782096743583679,-0.31133854389190676,0.3351716697216034,0.1166701391339302,0.1844107061624527,-0.15390363335609437,-0.31455233693122866,-0.010955769568681717,-0.15551233291625977,0.12783542275428773,0.31783032417297366,0.9501078724861145,0.4857438802719116,0.7069405913352966,0.10942547023296356,0.4400944411754608,0.38770943880081179,0.28384482860565188,-0.18972279131412507,0.24027569591999055,0.1031843051314354,0.2569825053215027,-0.02281704545021057,-0.2154313325881958,-0.36942222714424136,0.14776617288589478,-0.49249157309532168,-0.16863484680652619,-0.3633608818054199,-0.2703288197517395,0.052268750965595248,-0.39272356033325198,0.042432934045791629,-0.52353835105896,0.1772872805595398,-0.22619453072547913,-0.09143484383821488,0.38996216654777529,0.07517138868570328,0.731065571308136,0.35519570112228396,0.5089054107666016,0.3974432647228241,0.29319408535957339,0.24733680486679078,0.4257720112800598,0.25662940740585329,0.17410241067409516,-0.16993270814418794,0.07711628824472428,-0.24372752010822297,-0.1391110122203827,-0.6550432443618774,-0.41232651472091677,-0.47303804755210879,-0.06017668917775154,0.2950773239135742,-0.31445246934890749,-0.5060428977012634,-0.006348919589072466,0.04875488579273224,0.12986885011196137,-0.38975557684898379,0.49403032660484316,0.7254794836044312,0.8820541501045227,0.32489150762557986,0.7714726328849793,0.5566788911819458,0.19929401576519013,-0.012128286063671112,0.2091137021780014,0.33401837944984438,0.16625386476516725,0.2512930929660797,-0.20573246479034425,-0.09477045387029648,-0.37508800625801089,-0.2510955035686493,-0.4126684367656708,0.1949446052312851,-0.2709616422653198,0.023195484653115274,-0.142623633146286,0.13908039033412934,-0.4258050322532654,0.04884621500968933,0.20689789950847627,-0.784462571144104,-0.6327453255653381,-0.5435067415237427,0.3213857114315033,0.4035014510154724,0.06571521610021591,0.6037819385528565,0.31953656673431399,0.7741641402244568,0.4925665557384491,0.03884856030344963,0.40156930685043337,0.28910136222839358,-0.24741171300411225,0.2683670222759247,-0.5122795701026917,0.4536767303943634,-0.10176956653594971,-0.19148966670036317,-0.61045241355896,-0.05454409122467041,-0.23297803103923798,0.09670142084360123,0.2504788637161255,0.34007513523101809,0.021255681291222574,-0.18699178099632264,-0.4063239097595215,-0.6726517081260681,-0.1921442151069641,0.06986907869577408,0.10219277441501618,0.1480386108160019,0.6443716287612915,0.2597803473472595,0.5164192318916321,0.5351421236991882,0.20797611773014069,-0.436835378408432,-0.978204607963562,-0.5027947425842285,-0.05553917959332466,-0.21055196225643159,0.25783705711364748,-0.38740697503089907,-0.26950740814208987,-0.3731570243835449,-0.7794890403747559,-0.7154797315597534,-0.5496333837509155,0.44027429819107058,-0.05475267395377159,0.11664832383394242,-0.1705935299396515,-0.3055895268917084,0.0997445359826088,-0.1711789071559906,-0.13960674405097962,-0.4826134741306305,-0.22082048654556275,-0.029559390619397165,0.10486552119255066,0.284483402967453,0.09058408439159394,-0.18481366336345673,-0.1813231110572815,-0.47851991653442385,-0.18037091195583344,-0.45223358273506167,0.0013898354955017567,-0.32811275124549868,0.1387176662683487,0.010126848705112934,-0.1538308709859848,0.30582258105278017,-0.3914101719856262,-0.6705256104469299,0.16568823158740998,0.008068966679275036,-0.3469413220882416,-0.042341750115156177,0.17221412062644959,0.46101540327072146,-0.15970027446746827,-0.8306615948677063,-0.5050162672996521,-0.471291184425354,-0.09891015291213989,-0.31593573093414309,-0.5030027031898499,-0.31161388754844668,-0.1801435649394989,-0.20006294548511506,-0.2294510304927826,-0.3916090726852417,-0.32938334345817568,-0.5340014100074768,-0.02551289089024067,-0.3235449194908142,-0.5643165111541748,-0.14426758885383607,0.06481298059225083,-0.002397828735411167,0.14917202293872834,-0.21812134981155396,0.1518302708864212,0.46363386511802676,0.19550979137420655,0.21275971829891206,-0.32843515276908877,0.22990243136882783,-0.03159597888588905,0.09280461817979813,-0.21580807864665986,-0.35084763169288638,0.5761168599128723,-0.48103493452072146,0.2070474475622177,0.004971940070390701,-0.3550759553909302,-0.2618349492549896,0.04656434804201126,-0.04690375551581383,-0.027460509911179544,-0.16095198690891267,-0.3121500611305237,-0.6805528998374939,-0.19771625101566316,-0.10265614837408066,0.06092439591884613,-0.37988805770874026,-0.5505760908126831,-0.1457887887954712,-0.04982883483171463,-0.42843446135520937,0.29577499628067019,-0.23920491337776185,-0.09602506458759308,0.05330793932080269,0.26155975461006167,-0.5720245838165283,0.30038630962371828,0.17644502222537995,-0.22255101799964906,-0.4267648458480835,-0.14352065324783326,-0.40660297870635989,0.3090250790119171,0.1250961571931839,0.21806247532367707,-0.08758495002985,0.03442847356200218,0.14787599444389344,-0.14543482661247254,-0.10378550738096237,-0.38072943687438967,-0.05046851187944412,-0.542455792427063,0.13964414596557618,-0.5168555378913879,-0.46753889322280886,-0.10947129875421524,-0.07394853979349137,-0.4319864511489868,-0.1941884160041809,0.06865633279085159,0.08539390563964844,-0.4142502546310425,-0.15972766280174256,-0.03921600431203842,-0.35750481486320498,0.3547106981277466,-0.15062634646892548,0.17872977256774903,-0.16406618058681489,0.038520678877830508,-0.14682479202747346,0.3987865447998047,0.08498583734035492,0.14263829588890077,0.43715909123420718,0.08569774031639099,0.017258964478969575,-0.30959630012512209,-0.2746303081512451,0.11500319838523865,-0.3731670379638672,0.05280960723757744,-0.48296841979026797,0.28986793756484988,0.05691733956336975,0.21574710309505464,0.4955090284347534,-0.4751704931259155,0.44734907150268557,0.06344661116600037,0.23914793133735658,-0.3895978331565857,0.24204473197460175,-0.3159637749195099,0.05657953768968582,-0.2863275706768036,0.47152677178382876,-0.10629059374332428,0.43069642782211306,-0.15335533022880555,0.01733950711786747,0.0636809840798378,-0.314771443605423,-0.4527433216571808,-0.23507381975650788,0.20270530879497529,0.35670238733291628,-0.5100848078727722,0.03959275037050247,0.31126782298088076,-0.012476290576159954,0.3384301960468292,0.1819010078907013,0.48695826530456545,0.1358625739812851,0.47228097915649416,-0.30183520913124087,0.2853834331035614,0.10262764990329743,-0.1276673972606659,-0.16284988820552827,0.2334810346364975,0.05333453789353371,0.07730287313461304,0.21706712245941163,-0.03751028701663017,-0.2172669619321823,-0.1427093893289566,-0.23322337865829469,-0.1834842711687088,0.15869224071502686,-0.04988566040992737,-0.452244371175766,-0.020819341763854028,0.45855972170829775,0.07622366398572922,0.3293043375015259,0.3512345552444458,-0.24856288731098176,0.026102129369974138,-0.22569875419139863,0.21560321748256684,0.16860471665859223,-0.5011996626853943,0.4463919401168823,0.322822630405426,-0.3290916979312897,-0.12549112737178803,0.1159239411354065,0.6004900932312012,-0.24837206304073335,0.5525336265563965,0.2603797912597656,0.521142840385437,0.4499286115169525,-0.08179239183664322,0.043548859655857089,0.4648318886756897,-0.1815895438194275,0.09317319840192795,0.4726788103580475,0.4875076413154602,0.5448621511459351,-0.3106253445148468,0.1426430195569992,-0.14185816049575807,0.23668423295021058,0.15881377458572389,0.48670387268066409,-0.24790948629379273,-0.47271955013275149,0.019183078780770303,-0.22198599576950074,-0.17017525434494019,-0.28551289439201357,0.4628346860408783,-0.39037376642227175,0.0663210079073906,-0.4933900237083435,-0.3719387352466583,0.15123103559017182,0.2553994357585907,0.414070188999176,-0.3188057541847229,-0.43145033717155459,-0.06375899165868759,-0.3452913165092468,-0.18608644604682923,0.26377689838409426,-0.35018277168273928,0.4938443899154663,-0.002814657287672162,0.006755793001502752,0.1486547738313675,-0.25127938389778139,-0.16964083909988404,0.31324636936187746,-0.24984554946422578,0.33488136529922488,-0.24627630412578584,-0.213825985789299,-0.01890404336154461,0.12588649988174439,-0.05540669709444046,-0.2814142107963562,0.3847241997718811,0.010544315911829472,0.015659961849451066,-0.2893679738044739,-0.3390199542045593,0.042979899793863299,0.2181553840637207,-0.33392447233200076,0.020775841549038888,0.25808006525039675,-0.2706555724143982,0.25752586126327517,0.014785654842853547,-0.35660701990127566,-0.1780438870191574,-0.2922239899635315,0.39408963918685915,0.46591347455978396,-0.3867366909980774,0.25208956003189089,0.13262605667114259,0.042724721133708957,-0.33336251974105837,0.0799323245882988,0.4179381728172302,0.3505483865737915,-0.469863623380661,-0.3378790318965912,0.04624127596616745,0.008780411444604397,0.16797244548797608,0.00823899358510971,0.03896050155162811,0.35717716813087466,-0.23420050740242005,-0.05456202104687691,-0.33263763785362246,-0.13776253163814546,0.411539226770401,0.21753841638565064,-0.10516422241926193,0.3831535875797272,-0.06581646203994751,-0.16509626805782319,0.10100186616182327,0.0992952510714531,-0.15236632525920869,-0.10228706151247025,-0.08702469617128372,0.05928312987089157,0.34828633069992068,0.22170127928256989,0.3725452423095703,0.27360156178474429,0.3376941680908203,-0.4411548674106598,-0.11677888035774231,0.5049210786819458,-0.18462972342967988,0.13435779511928559,0.36342042684555056,0.5176795721054077,-0.09775693714618683,0.22618046402931214,0.05723339319229126,-0.290880411863327,0.2573777735233307,0.18570610880851746,-0.3355177938938141,0.014559279195964337,-0.36301738023757937,0.11615943163633347,-0.30030587315559389,0.33687886595726015,0.29822826385498049,-0.018186641857028009,-0.33112412691116335,-0.08612514287233353,-0.25283151865005495,-0.4618244469165802,-0.4014540910720825,-0.1932404637336731,-0.43107646703720095,-0.34593310952186587,0.08473819494247437,0.30517351627349856,0.2686558663845062,0.4444780945777893,0.10177343338727951,0.13815481960773469,0.39508357644081118,-0.025539468973875047,0.15648165345191956,-0.04156298562884331,-0.4184536337852478,-0.2839127480983734,0.3197782337665558,-0.0476258285343647,0.14637774229049684,0.3200361728668213,-0.08585238456726074,0.4069706201553345,-0.19833658635616303,0.1789383888244629,-0.33838051557540896,-0.033237941563129428,0.09459089487791062,0.022984350100159646,-0.09705144912004471,-0.18525171279907227,0.29473626613616946,0.0023239715956151487,-0.23113848268985749,0.5070169568061829,-0.2091267704963684,0.6871129274368286,-0.04657962918281555,0.6669275164604187,0.35223788022994997,0.7608479857444763,-0.23710234463214875,-0.3271879553794861,-0.0007773556280881166,-0.598260760307312,-0.2700771391391754,0.08689951151609421,-0.26991790533065798,0.15805509686470033,-0.13544534146785737,0.4050293564796448,-0.284654825925827,-0.0018865831661969424,-0.4910084307193756,0.17762064933776856,-0.3585454821586609,-0.02384336106479168,-0.01272872556000948,0.31225356459617617,0.337597519159317,0.3490173816680908,-0.05948515981435776,0.5301477909088135,0.275524765253067,0.5428977608680725,0.16139739751815797,0.13562853634357453,-0.6133600473403931,-0.8220891356468201,0.006014743819832802,-0.6187441349029541,-0.3427794575691223,-0.3396098017692566,0.5126188397407532,0.37985268235206606,0.018890028819441797,-0.3728887736797333,0.3313402533531189,0.4667664170265198,0.094549760222435,-0.028064195066690446,-0.012892908416688443,-0.18519346415996552,-0.09458351880311966,-0.26645132899284365,0.4044211208820343,0.0229610837996006,-0.10811959207057953,0.2703731954097748,-0.22671234607696534,0.5501358509063721,0.27157652378082278,-0.10708984732627869,-0.07730954885482788,-0.2014746516942978,-0.8005675673484802,-0.8082938194274902,-1.4232478141784669,-0.9985501170158386,0.049361277371644977,-0.3430138826370239,0.06542663276195526,-0.3647938668727875,-0.5578463077545166,-0.32699471712112429,0.3854731321334839,-0.3005857765674591,0.2869691848754883,-0.10759237408638,0.14001218974590302,-0.3268278241157532,-0.16150164604187013,-0.1465340554714203,-0.3746180236339569,-0.25021329522132876,-0.21513929963111878,0.19193919003009797,0.6129965782165527,0.15936319530010224,-0.1861722618341446,0.4614737927913666,-0.02785012312233448,-0.01468534767627716,-0.5710322260856628,-1.2541128396987916,-0.7451343536376953,-0.808451235294342,0.06726343929767609,0.1646355241537094,0.17358218133449555,-0.6962390542030335,0.16661182045936585,0.17392054200172425,-0.05063431337475777,0.39474576711654665,0.3002602458000183,-0.14635556936264039,0.31987106800079348,-0.47718745470046999,-0.37444359064102175,-0.11288390308618546,0.22003068029880525,-0.12544985115528108,-0.3388265073299408,-0.08049625158309937,0.3015745282173157,-0.1358780711889267,0.0033961543813347818,0.21117033064365388,-0.3172130882740021,-0.15692785382270814,-0.7816499471664429,-1.1689294576644898,-0.9845424294471741,-0.27694830298423769,-0.05595240741968155,0.23903118073940278,-0.13171762228012086,0.03367753326892853,-0.356494665145874,-0.15530246496200562,0.2793031930923462,-0.3839189112186432,0.02065437287092209,0.06351012736558914,-0.288404643535614,0.4387161135673523,0.0716540664434433,0.4254111051559448,-0.11291078478097916,0.1530160754919052,0.22448322176933289,-0.09306277334690094,0.15233974158763886,0.7618703842163086,